1203 100
a -1.0026665 -0.055318877 0.38573474 0.48732737 -0.051152386 0.16220546 0.21611828 -0.5312128 0.8638239 0.438976 -1.2948774 0.7331281 -0.45907438 0.088041194 0.05705149 -0.15333779 1.0754458 0.12992908 0.6052095 0.5723434 0.6366857 -0.43036208 0.61981326 0.107178524 0.1787972 0.12761013 0.5016384 -0.14279921 -1.001773 -0.22259201 0.5005298 0.32722342 -0.16519594 -0.43845272 0.08677645 0.69055945 0.006512031 -0.42418495 -0.20055154 -0.01254662 0.009036304 0.9497205 0.01707321 -0.7835874 0.58264047 -0.3340315 0.45752758 0.4540256 0.04967596 0.29394436 0.3302176 0.567737 -0.41965503 -0.1248104 0.7267462 0.06923893 0.9423529 -1.413074 0.4423139 0.75458074 0.13130474 0.26021612 -0.65209144 0.8159023 -0.3839665 -0.15625273 0.05960298 -0.193164 -0.2818111 0.6043552 0.57072204 -0.5302635 -0.083064266 0.4634361 0.30467907 0.13489284 0.21674733 0.011150349 0.34134525 0.34781256 0.34639952 0.40510094 -0.49763525 1.0631262 -0.32654527 0.12729461 -1.2111658 0.3312621 -0.056325935 -0.4438124 -1.1123343 0.48068085 -0.35497305 -0.583654 -0.64648527 0.16036579 0.37783727 -1.2993159 0.0050374805 0.7830395
of 0.49836797 0.3951986 0.6116375 -0.36812744 -1.5008504 0.19154692 -0.048020672 -1.9170094 1.2710254 -0.26429814 0.5157766 1.3590674 0.8282757 -0.13050872 0.18878676 -0.7409319 -0.210951 0.34025323 0.55006725 0.67975956 0.8642752 -0.8275224 1.4569522 0.8697694 -1.3158883 1.4598799 0.55261403 0.28134826 -1.2137963 -0.72369266 0.54021966 1.8008261 -1.5745407 -0.36188972 0.582211 0.38201815 0.1916842 -0.35324484 0.49887475 0.39808464 0.44405 -0.6057839 -0.1554859 -0.09915056 0.024658166 0.17891918 0.51156986 -1.0283267 -0.116957605 -1.8029528 0.91948926 -0.27778864 0.10890231 -1.0846584 1.4704026 0.19315036 -0.54573506 -2.6066 0.68162864 -2.0456336 -0.9129213 -0.29611334 0.1412255 -0.32360166 0.68113387 -1.3633293 -0.5870565 -0.77885425 1.1454525 -0.5969157 1.8879522 -0.95819765 -1.3978356 -0.118957564 0.33620676 0.06058972 -0.47143608 1.920883 0.27723968 0.86727107 -0.89656454 -0.80455095 0.3897702 1.313149 -1.6660429 0.12613425 0.090786725 -1.4859198 -0.2979754 0.6272865 -0.6536995 0.12300907 -0.27867973 0.9264949 0.54097486 0.49832788 0.97138065 -0.45449367 0.12697446 -0.3890818
on 0.2890414 1.1898735 0.5975217 -1.0347625 -1.7839754 -0.09513955 1.521452 0.8461786 -0.12645157 1.2432921 1.1475563 0.21421438 -1.3921113 2.029546 -0.03685137 -2.027874 -1.0384816 -0.29573604 0.3617856 0.53440297 -1.0584451 0.5512948 0.51572365 0.3012737 -0.8680239 1.1025515 0.19365281 -0.3903742 0.74748844 0.024488386 2.0596097 1.1871601 -0.36042184 0.25288633 0.17718054 -0.87230474 -0.10717475 0.48655263 0.75964653 0.3487453 0.3137527 1.883288 0.67547387 0.26691088 2.409149 -0.7296419 -0.4911688 -0.5108187 0.37284622 -1.1740702 -0.18532412 -1.5649518 -1.3386626 -0.35152337 0.7112109 0.35832646 -2.6781676 -2.2235992 0.4114037 1.0778726 0.31398392 0.10030801 -0.21933042 1.0711688 -0.21567146 -0.39361182 -0.4637609 0.26762086 -0.14007828 1.150353 -0.28749397 0.045609538 0.37973753 -0.9828372 -0.5426638 0.40950134 -0.5132553 -0.72083056 -0.09187395 0.08357442 1.3154622 1.1264341 0.45688337 3.1843894 0.61296844 0.03389663 0.46847185 0.30004278 -0.20346354 1.0970181 0.5444815 -0.38269424 -0.3642877 0.9018652 -0.96963227 -0.3247531 0.49673703 -0.954189 0.087173216 0.15598221
in -0.7350674 0.04461478 0.3121616 0.043557007 0.23600082 -1.4271328 -1.2041496 -0.5615497 -0.25494698 0.44185162 -0.16626845 0.101489194 -1.0084666 1.1956341 -0.06332935 1.2607169 -2.1901488 -1.0250013 1.6271117 -0.7882805 0.6543501 0.7930133 1.066708 0.6683128 1.6140828 -1.7328025 0.77606094 0.6835872 -0.5145188 -1.1124823 0.72604835 1.2584879 -1.031408 -1.5609065 0.56814736 -0.19277997 -1.4702863 1.148553 -0.26619995 -2.083383 0.407788 -1.0186446 0.24468414 -2.8075583 0.7489001 -0.26212004 0.5052963 -0.3030732 1.1989179 1.4438549 -1.3169584 -0.099864416 -1.4121611 1.8086168 0.5963362 0.1494985 -1.1203021 -0.61225075 -1.3360721 0.5164698 1.2664859 1.2568429 -1.8081448 0.7100356 0.034683093 -0.89103895 0.6968958 -1.2213441 -1.2822454 -2.1820946 0.44856182 1.939871 1.771106 -0.42423636 1.2511901 -0.5783879 -0.5929389 -0.16860507 -0.6760012 0.6362885 1.6089878 -1.1539268 -0.2396863 0.16809711 -0.046140306 0.37586266 -0.55710983 -1.1158477 -1.4470963 1.0037924 -0.18580827 -1.1826969 -0.55953354 0.24892431 1.9991754 1.1953505 -0.38815463 -1.2162942 0.6673834 -1.8733445
sitting -0.034833543 0.2773373 -1.5232337 -0.010925666 -0.9815703 -0.642805 -2.0060494 0.5860376 -0.8077519 -0.598269 1.5660313 1.2639602 1.4320232 -0.39444923 1.0049989 -0.7984269 1.376618 0.74010795 -0.19636872 2.6007679 0.7033726 0.29282704 1.2294251 -0.40196186 -1.7423239 -0.8459405 -0.16243184 0.09831492 -0.044929817 1.5938221 1.0630487 -2.009628 0.458891 2.315286 -0.04298479 0.03902497 -0.18024018 3.299297 1.00029 2.20935 1.4004469 -0.017138705 -0.09835526 2.7931032 -1.453736 0.7068699 1.3754392 -0.12516886 -0.17747936 0.74946046 -1.416479 1.529608 0.29152143 0.28263462 -1.1983814 -0.83579016 1.5993154 -1.7216913 -1.1951494 0.18641351 0.77694786 -1.0243611 -0.033046 -1.3802005 -1.391228 2.335003 0.68098694 -0.90590215 0.5759949 0.80368525 0.7874488 -1.1061375 -0.9583779 0.21840043 -0.8522332 -1.2937514 -0.9771777 0.8480408 0.6086008 -1.9411368 -0.8753164 -0.921538 -1.3555562 1.0966771 -0.712505 -1.095208 -1.1215 -0.7568556 1.1031785 -1.2029757 0.69320625 -1.7843193 0.0021524495 -0.9040232 -0.0020667892 0.24466208 -0.39860138 3.0394201 -1.2564628 0.044602748
with 0.1664216 -0.57361186 1.4488009 -0.51169217 -1.0254152 0.6035003 -1.1429949 -0.67422587 -0.07756198 1.1102917 0.8311115 -1.6192217 1.1617546 -1.4595389 -1.0722067 -0.81471074 -0.21174115 -0.8628341 0.3584696 0.21402653 1.5945971 0.25554085 -0.9323842 1.0181222 0.8408274 -0.17825855 -0.6712237 0.9292188 -0.37022725 -1.2028372 -1.3844751 2.1038485 1.7692039 0.15977806 -0.07213803 1.3465914 -1.5648656 0.45751715 0.71021944 -0.23896927 0.95364654 -0.038285576 1.5318485 0.8690612 0.5256212 -1.529334 1.8297037 1.1287094 -1.5316211 -0.35570368 0.2739329 -1.5745757 1.2509377 -0.08926387 -0.4220792 -0.6701734 -3.4261665 -0.019117905 1.3361312 -1.1808403 0.06406228 1.6461076 0.8921218 -1.2302833 1.1311853 2.035553 -0.7834036 0.22442877 -0.61443377 -0.06774889 -0.3689553 -1.274962 4.149599 -0.36073428 1.8957071 -0.13121 -1.4459182 -0.9599227 -0.4567468 0.8464278 1.9647176 -1.3168807 -0.16471198 0.12007876 -1.5232359 -0.13174954 1.1834537 0.8635186 1.698452 -1.1997826 -0.045021668 -1.074824 2.0198588 -0.15128998 0.37435845 -1.315588 -1.3176508 1.1798968 -0.3577587 -1.3330592
man -0.5827097 -0.120324194 -2.5351331 -1.8426276 -0.14209546 -0.48082256 0.74582845 -0.59646976 1.5872233 -0.13491267 0.9279745 1.5970427 -0.92570907 -0.65582365 0.6228644 -2.2121322 0.08027689 -0.34173483 0.4236581 -0.15574256 1.6176709 -0.97865915 1.9605509 1.2061422 0.010864519 0.7067493 -0.32483172 0.12652059 -0.5094611 0.36975813 1.564384 -0.6948288 -0.66031307 -0.41563544 -1.1685932 -0.16925806 -0.85919964 -0.4856691 -0.89466107 -0.47806674 0.2735364 0.28477013 -1.2536038 -0.9659208 0.25990665 -0.93775415 2.4393625 -0.67495424 0.4904832 0.45079273 -0.23864827 -0.34996486 0.1125362 1.451121 1.0629199 3.5183396 1.0416819 0.46641695 -1.073607 1.8966292 -0.79758024 0.8869425 -0.7859227 0.8157837 -1.373741 -1.1462009 -0.09668772 -0.6431926 1.0131991 -0.8641791 0.20770806 0.8306758 -0.58455 1.862161 1.0630642 1.5692078 0.20475875 0.87206644 0.99190176 2.399072 0.06971235 1.8020283 1.9711076 -1.6174282 -0.23019138 0.039404023 -2.0492322 1.2019912 1.3022857 -2.05315 -1.593719 0.6352253 0.699143 -0.76912963 0.34770474 -0.16436973 -1.5184166 -0.24012777 -0.9402935 1.3609893
the -1.1815975 -0.1414624 -0.054030128 0.094004326 1.2069587 0.3413936 -1.152337 -0.7354111 -1.1546621 1.7475182 -0.79859227 0.8122539 -1.8830411 0.55234617 -0.5388878 -0.12799428 0.33194137 0.5986236 -1.4554464 0.9077924 -0.44773027 -0.2458448 -1.7270927 -1.3515077 -1.4232733 -1.0438067 -1.2792186 0.089570336 0.3559216 1.391679 2.3014212 -0.30399394 -0.7012404 0.38762203 -0.84123015 -0.7833839 -0.5380402 -0.12552291 -0.43912733 0.028145773 -0.56286407 1.3988796 0.2915793 -1.3921778 0.6246637 -0.653807 -0.8089276 -0.8412575 2.1477337 1.5505104 -0.2516737 0.62353605 1.4177785 -0.71052265 1.0509608 -0.47538733 3.203622 -0.61209166 1.9799594 -0.964435 -0.14200526 0.83333737 1.5274947 2.5195289 0.22895977 -2.5719862 0.6470693 -0.3587008 -0.06488475 2.159846 1.8389452 -0.33846796 -0.7604187 -0.32546413 0.47046143 2.5179188 -0.22357564 0.09729823 -1.6324863 1.8340359 -2.6704645 -0.30032584 -0.33606118 -0.39661902 -0.27576828 0.088428915 -1.7540272 -0.45718926 0.49452877 -1.7287213 0.49418637 0.9020114 -0.025830854 0.11369372 0.7122518 -0.93561536 1.0949247 -0.52088225 0.82983613 0.73277336
and -0.65908897 -0.7192077 1.6822346 1.4489197 1.1651746 1.4251469 -0.6546853 0.7002851 -0.19239035 0.6546766 0.6273717 -1.4692873 -1.4826369 -1.9320018 -0.5187857 1.0738056 -1.0328414 -1.0575966 -0.033844564 0.5366285 -0.8678593 0.1799681 -0.7191166 -0.09601246 1.149039 -0.30547258 0.90518713 1.4270552 -1.285606 -0.7188342 1.444189 -1.0038809 1.8131756 1.8450192 -0.37888873 0.5593265 0.87628007 -0.68153256 -0.5797304 0.71223706 -1.959441 -0.9313147 1.7018759 0.53001636 -0.9352767 2.5212872 -1.0532584 0.2908851 -1.1784765 0.14758633 0.33998564 0.61760163 -1.3948812 0.6132545 0.47020552 -0.52464503 -0.6612766 -0.06685394 0.1739927 0.87256455 -0.7652504 -2.1570342 -2.9242396 -1.913464 -0.025856877 1.317237 0.0052693854 0.5002864 -1.7673315 -2.0273597 -1.0629694 -1.2536397 1.4213252 1.0574125 1.3248788 -0.786718 -0.8442263 -2.0099204 1.6736848 -0.4811897 1.7486686 -1.7887293 1.9636722 0.90430266 -0.21455 -0.8594253 -0.152354 0.7389137 0.7320674 1.0382057 -0.37715477 -0.23681441 0.31488279 -0.29960814 -0.25168958 0.98364276 -0.16327868 -0.629231 1.0795628 1.0544524
standing -0.17435043 0.397423 -1.6684592 -1.1585058 -0.2804187 -0.6015504 -2.951141 0.5774291 -1.0261067 1.071616 0.25491023 1.9038833 1.2228295 -0.1197917 2.3140233 1.3180244 2.635656 -0.37174094 1.0509663 2.437892 -1.1577895 0.4210363 1.463618 -0.19974029 0.025054118 0.3881235 -0.7817878 -0.5994967 -0.37118915 -0.34478286 0.45400122 -0.42299175 -0.4127927 -0.0740735 -0.8090014 -0.27310473 -0.671917 2.5501537 1.6506124 1.6217929 0.05420985 -0.2507448 2.2564828 0.24599376 -1.2170304 2.2586777 -0.20214473 1.9945534 1.7564193 1.6486933 -2.485971 0.2865256 -1.3303827 -0.31376952 -2.0401745 1.4371561 0.648793 -1.2392964 -1.4148868 0.3702506 0.7359284 -0.939131 -0.46128866 -0.8854849 -1.5176919 1.3611963 -0.6246291 -1.6069772 0.47289002 1.1896143 -0.101972 -0.3114812 -1.8567506 -1.3772421 -0.91877586 0.8746347 0.5783581 0.5280554 -1.1455722 -1.8896677 -1.6526518 1.223482 -2.7096984 0.6434974 -1.0032259 -0.8840277 -0.5191646 1.2319083 1.3372614 0.6862108 -2.432366 -2.537826 -0.11365874 -0.6853301 0.40880087 0.0019349396 0.6209567 2.457034 1.2639406 -1.156677
top -0.26163033 0.553211 2.3819318 2.768242 -0.34597173 -1.5342933 1.8399944 1.6062846 -2.224383 -0.54548544 -0.9371096 -3.0737672 -1.1603651 0.8335372 -1.7341992 1.715465 -0.33224195 -0.95081544 -0.24897125 -3.324977 0.64841455 -0.49749398 -2.2871861 -1.3252212 1.0768114 0.26980782 1.2551274 -0.34166867 1.1759386 1.9962066 -0.30900806 0.11072525 -0.18983981 -1.186576 0.8674826 0.26053908 0.16443586 0.26725763 0.2811804 -0.6080033 -0.28064287 0.36236846 -1.2200304 1.1717663 -3.4628396 -1.0678804 -2.060193 -1.3789985 -1.1009591 0.25635967 -0.5022196 0.19041008 -0.47944808 -0.18751407 1.4425387 0.06715478 2.2185624 3.1129096 -0.80572027 0.37496462 2.3178625 0.007312522 0.99754363 -0.27001423 1.3952715 0.46751064 -0.4087104 1.020523 0.7572751 -0.45285422 -1.7996327 -0.3269684 1.4511787 -1.023882 1.5577133 2.3593805 -1.3558742 1.5845048 -0.44313318 0.6979387 0.14809947 -0.23556226 0.7384585 -0.3751111 1.3590461 0.6733036 0.37895703 -0.5981159 -2.4035149 0.41179666 -0.042763144 0.19274095 -0.27201274 0.2875443 0.07150784 -1.0253998 1.162014 -0.21994759 0.1956478 -1.7908505
group 1.7272586 1.9588511 -2.5732965 0.09846572 -0.68795246 -0.22498581 3.4327407 -0.10499994 1.6595268 1.0242493 -0.53718555 0.43354705 -0.7200797 -1.1104008 -0.009118329 -1.8016522 -0.14690955 -0.99713075 -0.5565914 -0.66865206 1.073518 -1.4644907 2.843687 0.7733729 -2.245693 -0.8422551 0.539392 0.5144355 1.2328163 1.9992177 0.6843454 1.4772398 0.5777846 -0.12142737 -0.42205334 1.3029861 0.68032634 -0.63163173 1.9119451 -0.11590642 -0.71133596 -0.7202372 -1.1576816 -1.365023 -2.002728 -1.4620697 0.44337952 0.1246008 2.292282 -0.40538192 -0.4346118 2.1965911 -0.57377356 -0.228556 0.71843344 0.49168283 0.076918595 -1.6510645 0.19662383 -0.9611963 2.0837817 -0.6737465 0.60316265 0.9485376 -0.07973492 -1.3384435 -1.618679 -0.41831064 -0.556535 1.9199187 -0.77024215 -2.8662584 0.09321054 -0.38859662 -0.34198645 1.5085058 0.086060375 2.2475595 2.0945578 1.9088334 -1.5069307 1.5052645 -0.7456434 -1.3980244 1.5570282 -0.8270745 0.47660822 -0.94186926 -0.9424499 -0.52597094 -1.006246 1.5505143 0.6125387 0.99684846 -0.8636168 1.7823339 -0.6983386 0.016619889 0.12504834 -0.6495207
to 2.066316 -0.8753136 1.6440858 1.3898546 0.8644967 0.31831273 -2.3417022 1.7371838 0.089771345 -0.55917007 2.0892296 -1.144118 1.8593599 0.6040562 -1.7137012 -1.5659827 -1.1369407 0.016498815 -2.049981 -0.28724414 -1.1538278 0.7721509 0.36849853 0.88104075 1.2779756 -2.410809 0.80709845 -0.100791775 -0.6229004 0.5519559 0.6496663 -0.29884347 1.095097 -0.62372446 0.7721107 -0.12692082 0.39502427 0.67838913 0.8922896 -2.852965 -2.1270266 2.961079 -0.45301268 -0.7988311 -2.1632137 -1.5170715 -1.1942405 -0.52270705 0.051443573 1.0811853 3.2397385 -2.0533934 -1.7286544 1.183773 2.6158519 1.3097906 -0.39980552 -0.7892271 1.270037 -1.8404503 -1.9340295 0.087216526 -1.20154 0.2308611 -2.088065 0.46412596 1.4344552 1.7183521 0.19848786 2.0750687 0.5593604 -1.06976 -0.47447968 -1.6440827 2.0070271 1.1777765 1.0760254 -0.03154649 -0.8425177 1.9946477 1.9844135 1.7772164 -1.4568349 -0.1104863 -2.1230814 2.2713695 -0.09761388 1.2333081 -1.7202808 0.71179444 -1.7944114 2.8150418 0.014292587 -1.6310593 -0.46373424 -0.12112801 -0.18075475 -0.05301339 -0.23068713 -0.12471675
next -1.0399451 1.3378896 0.17960773 1.0972345 -0.90238154 1.3096745 0.5759333 -0.93521833 -0.37283626 -0.121390596 0.40056673 -1.1657195 -2.2853413 -2.0624638 -0.5098031 0.62255716 -0.47205746 0.73000854 3.1396968 -3.1031184 -0.96087176 -1.1487424 -1.9650795 -1.1826484 0.7404949 2.051149 -1.364112 1.921653 0.3020171 0.55072325 -1.359748 1.6816013 0.51660734 -2.1000247 0.85081446 1.4300909 -1.0535856 -1.5910696 -0.80066484 1.8510948 -0.18896638 1.4741257 1.7739586 0.1662135 -1.0435566 -1.8510178 0.09786342 -2.6873984 1.0497038 0.44481573 -1.1148151 -0.7814648 2.228897 1.1164191 -1.0210264 -2.114366 -0.32644594 -2.0862937 2.3167877 -0.056136943 0.9082488 -1.4847728 -0.36371115 -2.1416535 1.0659008 -1.0001472 -1.8884706 1.2733436 -0.022692641 0.4331239 -1.3642013 0.9837952 -1.2925718 1.9057761 0.16550426 -2.1837404 -0.5666411 -1.4369833 -1.8509985 -0.030314557 1.6275551 2.4825163 0.2800913 0.4951966 1.9095011 -1.4834248 -1.6481932 1.2279326 -1.7341124 0.042428114 -0.65207833 -0.6211424 1.9548455 2.358801 -0.4024113 -0.80507785 0.5365098 -0.358724 0.20556235 -0.17156856
riding -1.0635589 0.40505856 -2.2773013 0.13874735 0.33882505 0.9926453 0.41533837 1.264042 -1.3089117 0.7764535 1.7713706 -0.07898305 0.5263107 -0.67889476 0.87243396 -0.99632746 0.12778994 3.186719 0.71906155 1.4409636 -1.4438062 -0.6010183 -0.3785999 1.8282189 0.30886683 -1.749802 0.11746704 -1.4032409 -1.7400848 0.57737064 -0.17345269 0.78372115 1.0932145 -2.6066883 0.52433103 -0.23902453 -1.6436635 -0.80537754 1.6683489 1.5793086 2.0592191 -0.023537314 1.4558324 -0.49996158 -0.9367227 0.41163883 0.69192 2.3816497 1.4358684 0.6968791 -1.3483872 1.6348695 1.037741 0.21156864 -1.0275099 -0.4463742 0.5184835 0.67545766 -0.50392646 -2.439674 0.66502386 -0.32652918 0.8640257 1.3742906 0.32630944 -0.52233547 -0.19279759 -0.3773036 0.2180093 -0.6321154 1.2755795 -0.89897937 -2.5430772 -0.6521184 0.078979716 1.0593241 -0.30451143 1.0944061 -0.73211485 -1.1996442 -2.253823 4.6073947 2.120592 1.0760939 -4.0378613 -2.1254315 1.8465784 -2.146995 -0.70995104 1.4937226 2.649957 -1.4743122 -0.15455349 -2.625137 0.024485959 -1.4588192 -0.5361482 0.34712544 -0.0699998 0.18321317
people -1.3450989 0.4331052 -4.458124 -0.86077726 -1.507984 0.73783344 0.85972315 1.5934169 2.9541764 -1.1012235 0.69405115 1.4939537 -0.86842996 -1.9995508 -0.76860476 -0.031857643 -0.63503295 -0.9352312 0.33722445 -1.0793924 0.8370403 -1.664464 -0.50125283 -0.3489666 -0.7165868 -1.2902464 0.9860318 -1.5284141 1.0337269 -0.59400696 0.88875777 1.0239055 -0.87921244 0.1062558 0.40955606 -0.949188 1.7472842 -2.3806176 -0.846473 -0.58825934 -0.93376964 -1.2297101 -0.55941945 -0.55091 -2.011963 -1.9418049 -0.50747174 -0.3460006 1.6234301 1.4262307 -0.29760572 -0.92502576 -0.45192587 0.8099982 1.782882 1.7289399 1.70542 -0.010816844 -0.67518723 2.3107505 1.2688143 -0.46504766 0.38065964 0.45190755 0.2554504 -0.84616154 -0.19671904 -0.30699077 0.54190683 0.74874157 0.72470665 -0.9094327 -1.5640701 0.40473512 -0.19248685 2.5244045 -1.2464727 1.1862739 0.24282525 -1.858116 0.9415358 0.612461 0.5618322 1.8020751 0.5289534 -1.484265 0.569392 -0.8675491 1.8537163 -1.4483944 -0.84340364 2.1288412 0.35030627 0.8768585 0.9655744 -1.8858136 -0.22683115 0.27745038 -1.7667543 -0.1623789
table 0.34472245 -0.97871643 0.33716676 1.3689806 0.37787455 0.3620169 1.3369102 -1.7390785 1.1500926 -0.4770023 -1.4012475 0.059742972 0.98490906 0.09630429 -0.29996005 1.8685864 0.008717842 -1.1646925 -0.6475883 2.4549541 0.12836535 1.0002085 0.29479653 1.8513448 1.0718474 0.20106943 -0.8877226 0.098085664 1.1555172 0.20288031 -1.4511337 2.185555 0.05306213 0.14576297 1.6775181 -1.8186795 0.97512835 1.6269006 -0.6427413 2.116289 2.1199074 -0.28945154 -1.5541698 1.308789 -1.7471716 1.1289635 -1.162316 1.0555294 0.24956116 -0.2475886 0.7248747 -0.21387692 0.26024833 -1.8572901 0.8274331 0.8054041 0.41645995 0.51001924 0.17199744 -0.2731604 1.3324379 0.24818541 0.52931184 -1.3994156 -0.33876112 -2.5617785 -1.0981493 0.35321817 1.542633 0.59068817 2.6669168 -1.1719692 0.40666988 0.42781633 -1.7186499 1.909116 0.63098526 1.2484568 0.31853056 -0.9131019 -0.10393398 -2.5065238 2.5568314 1.2010609 3.3581114 -1.5626373 -1.5881554 0.2804725 -1.4163419 0.075239114 0.7395354 -0.5109916 -1.4806716 -1.5816479 -1.4605753 0.28813702 -0.6037977 -1.14313 -1.4710574 0.7968589
street -1.1691592 -0.58578694 -2.182305 -0.90412486 1.2013216 2.2376595 -0.01733249 -1.4689596 2.1822798 0.8512445 -0.0069792983 -1.144848 2.6960092 -1.802038 -0.6813878 -0.56761676 1.490232 0.3107433 -0.5211781 0.495049 2.3951838 0.1255437 -1.6006099 0.41335067 -0.5274142 0.99028504 0.48110312 0.83207315 0.6038563 0.83458996 -1.2095816 0.73177236 -1.0643423 -1.023985 0.61579883 -0.77096707 -0.5567836 -1.7766176 0.73350954 -1.5422496 2.3275218 0.22722058 -0.57582206 0.09626359 0.5830523 0.80020976 0.5593447 -0.7148062 1.5144734 1.0725856 -0.42790717 2.9314213 0.34995523 0.1627743 0.14641605 -1.1186563 2.0522606 0.271845 1.592112 -0.45836318 -1.1653372 -1.5077622 -0.84468365 1.6909792 0.47892377 -1.4524182 2.320837 -0.38353142 -1.4546726 1.4558126 0.780848 1.0941297 -1.9431694 -0.5485696 -0.23581818 0.83899534 -1.128339 0.19520147 0.38828954 0.3652575 0.39380977 1.8561673 -0.07794096 0.4538157 -1.5172414 -0.3763989 -1.3891581 2.1487494 1.1465998 0.7277148 -0.11734809 1.1417197 -1.5286565 -0.8519099 1.5572873 0.63523126 -0.38770163 -0.4917336 0.6356445 1.2579228
down -1.8543457 1.2207862 0.20507261 -2.3073926 -2.6728542 1.8323902 -0.12642328 1.3026013 -1.5899831 0.11239219 1.9155937 -0.49263343 -0.06923134 1.3635877 -1.7874885 -1.5330514 2.2646146 1.8775297 -0.6997255 -0.93951267 1.1887108 0.61695033 -0.5275201 -0.32600006 2.2895715 0.81733257 0.2073317 -0.10125897 1.8029649 1.7754517 1.2980335 -1.4820877 0.24589394 0.55850416 -1.4522445 -1.616541 -1.0675315 -0.9295171 2.1839118 -2.0817087 1.6069231 -0.9826145 -1.0678242 -1.1286592 1.3992252 0.5055561 -2.207643 1.0484095 1.2549149 1.2846876 -0.3744249 0.31046453 -0.74884963 0.3840546 -1.8329839 1.0004237 -1.2980264 -0.43662703 2.910188 1.947294 0.40124437 -2.1667404 0.46762097 -0.3614718 -1.6521642 2.0917675 -0.14564352 -0.052679595 -1.2881457 -0.79168195 -1.6676724 -0.20328745 -1.0283586 -0.7105723 0.20504509 -1.28548 -1.3800496 -2.7371976 -3.3267055 -1.5782087 0.1288437 0.9623966 -1.3591828 0.40275353 0.21247642 1.9536234 -0.10966288 0.8357508 -0.708084 -0.5689396 -3.12044 0.8413789 -1.6186391 1.4465126 1.5493009 3.1072435 -0.19061469 1.5992887 2.3974 0.5228896
holding 1.0696347 -1.8748373 0.7687659 1.1245042 -1.5521804 0.59629995 -2.4370968 -1.3280144 -1.7172009 -1.5768037 0.8427256 -0.1949112 1.4310974 -0.6325044 0.64769304 0.42453623 -1.2040691 0.7764813 0.36950856 0.5382867 -0.9196304 1.0346408 -0.8493669 3.3303602 0.09394132 -2.8233185 0.5120558 -1.1835204 1.8266189 -0.6030685 0.5699695 0.9542248 -0.08521601 -0.4705349 0.1417155 0.34994918 -0.59654623 0.392588 0.7762787 1.9286925 0.47455055 1.5350962 -0.33258176 0.62624645 -0.67140985 -0.68788767 0.21110953 0.04653458 -1.5694172 0.47880325 -0.29289627 -1.248068 0.11179759 0.48596215 0.37489983 -1.9394143 -0.1449549 -0.8732606 1.559872 0.22306456 0.13097101 1.6654613 -0.1546001 0.06800891 0.282847 -2.7251782 -0.618147 -0.18048328 -1.3925451 -0.37922317 -1.5495547 -0.35682866 -0.2216195 1.375684 1.6282407 0.01661797 1.8661927 -0.64117754 -0.9374448 -0.10219473 -0.33600032 0.5909555 1.7364023 -0.32440242 0.26099515 -0.8843209 1.6810092 1.2323822 0.17008476 -1.9489754 0.63083893 -2.6147518 -0.0037661751 0.41867706 -2.491879 -1.8301677 -0.72447807 0.26499856 1.795455 -1.9404757
field 3.4812176 0.28209895 -1.0935277 0.35779238 1.7065853 -0.48053274 1.1482219 -0.93575644 -0.0049911924 0.56890434 -1.8303261 1.4078077 0.08479074 1.0769923 -0.44792354 1.174381 1.8318194 2.8883154 0.1833752 0.28823906 1.3748235 0.81667846 0.22983047 -1.1065121 -1.228018 -0.104320146 1.0084964 -0.16410953 -0.18968292 1.1765834 1.2494742 1.7595048 -0.14914557 0.31726465 -1.2017726 0.67186433 -2.207208 -1.7666239 -1.823099 1.2309296 -0.53410393 -0.7372077 0.8841036 0.7239761 -0.6039724 -0.7331163 -0.36295003 -1.038853 1.7978925 -0.40677047 0.68552923 1.3248049 -0.5651304 0.5501838 0.05671602 1.7744774 0.97338164 -1.7244204 0.25631946 -0.36833382 -0.979001 -1.3916885 0.52603704 -0.24897484 0.34460178 -2.3505762 1.0386516 -2.2357528 1.0116615 1.2723678 -0.4410346 -0.6034367 -1.236331 1.0818546 -0.2842496 2.5461924 1.8820488 1.8240632 -1.8028225 -0.44447896 1.0210638 0.45055753 -1.2692211 0.07653872 -0.30659124 0.7050285 -0.81613976 0.40086883 0.76971704 0.72365505 -0.36907846 1.5596029 0.6720043 1.6677756 -0.62578857 -1.5130532 1.5763412 -0.89671797 0.22730286 -0.55837756
white -0.17468986 0.63305515 0.9004741 -0.89501166 0.17549121 1.235798 0.31786612 -0.6247418 2.0059888 2.0116398 -1.089378 -0.14772157 -0.024199778 -0.20675424 -0.15097052 0.05614033 2.0358613 0.7656661 1.110086 0.22136834 -0.59669966 -1.5619315 1.3954209 -0.6678207 0.70259684 1.0908715 -0.5143123 0.96496415 -1.5543597 -0.9845089 0.63062966 0.5351929 -0.9215599 1.0559293 0.8731569 -0.30456862 0.95530665 0.19732298 0.06120512 -1.2597597 0.7961837 1.7828635 0.5496487 -0.9673398 -0.013608867 -1.6946594 -0.93548477 -1.5190232 0.6736395 0.4624332 1.5547892 -0.78305465 -0.3911931 -0.124401644 -0.14238757 2.2381954 1.297537 -0.5659575 0.38560182 -0.93270874 0.7026702 2.9059381 1.7378724 -0.88530284 0.47934324 -0.7176875 -0.72150713 -0.55203766 0.88951045 0.12697364 0.5176897 0.4558383 0.65135807 0.021502187 -0.02338379 0.012927453 2.6603227 0.54624987 0.5649523 -0.85388243 0.34543723 -0.5501967 1.3954022 0.6134111 1.5545729 0.2859107 -0.19794849 3.0778265 0.12845214 1.7751405 0.5577063 -0.226805 0.2194237 -0.5352282 -2.305435 -0.11266093 -0.90113086 -0.4601411 -1.5928692 -0.48870704
is -1.5788261 -0.16630639 -1.6822165 0.8309435 -1.2812585 -0.26687428 -0.03620734 1.3303618 0.2677459 0.2714398 0.49959636 -1.1700741 0.4346438 0.08479054 -1.0038946 0.9783356 -0.6658031 -1.2943268 -1.4550534 -0.27784595 -1.4922633 -1.2042044 0.09830851 1.626365 0.96156853 0.32566312 -0.57566977 0.22868995 -1.8000902 0.116471395 0.018954178 -1.8333175 0.5834413 -0.6860889 -1.5010198 0.2765244 0.49252474 -1.8560907 -0.042185646 -0.6178668 -0.88801193 1.7178104 -1.8128737 -1.4373727 3.034358 0.004681314 1.6308135 -1.4708885 -0.13993484 0.8088037 -0.20976745 -0.04180151 0.96940774 0.9229228 0.4261938 0.685612 2.2027934 -2.6503303 -1.1155715 -0.44328013 0.07153247 -0.39867827 1.9745867 1.3166801 2.6283357 -0.65530926 0.8768263 -0.530459 0.22802219 -0.5505712 -0.48267397 0.51144534 0.24160294 0.59848064 0.6271544 -1.2576561 1.3275656 2.187195 -0.34462303 1.1279237 1.6387064 -1.3617356 -0.04283269 0.27042302 0.015406508 1.7479 0.14030845 1.033842 1.5155938 -0.268975 0.15281147 0.7741034 2.1817815 -0.022757657 1.097214 0.025877139 0.8190631 -1.791116 -0.23906697 -0.4442522
woman 0.2560446 -1.101148 -0.42809346 -1.1196404 -1.4492028 0.69037867 -0.4386719 -1.0133069 2.6589594 -0.1992779 -0.43862715 1.4268123 -1.9659506 -1.430762 1.5785097 -0.75111157 -0.35322416 0.71749246 -0.93319654 -1.0106397 0.9573648 -0.4309263 0.98850363 -0.31773505 0.050474714 1.3901628 0.6419927 0.3416991 0.53005826 0.29412538 0.18104586 -0.90591115 -0.5054825 -0.82850116 -1.4052414 -0.822692 -0.068878405 1.3485703 -1.7168281 -1.2657052 0.39078197 -0.38651165 -0.8949657 -1.4008354 -0.8087821 -1.6410757 1.1220268 0.93541265 0.69185317 -0.7015363 -0.045620885 0.20578219 0.5914593 2.6609921 -0.5516628 2.303052 -0.24753484 0.44834796 -0.13549486 1.6039032 1.0891196 1.7935007 0.10960816 0.7279507 -0.09522256 -0.024037832 -0.41053936 0.44640294 0.05130045 -0.28991815 -0.061084166 1.544241 -1.2742641 2.6538422 1.2963659 1.4435701 0.56627333 1.7301296 0.24130006 1.7123492 0.50505894 0.33015877 0.45122918 -1.4750015 -0.021202086 0.7437998 -1.1514133 1.8415427 0.43240622 -1.1629276 -0.52459544 0.29412976 -0.0071572317 -0.73215866 0.4751792 0.14071217 -1.5105616 -0.71308875 -1.2419451 2.0455954
side -2.9780362 -1.5705323 -3.033453 -0.57014906 0.9443314 -0.19528663 1.8576874 -0.01789475 0.09894824 -3.47555 0.3855253 -2.5268717 -1.157646 -0.9912552 -1.8757555 -2.7342298 0.35491255 -1.9121143 1.0294303 -0.5046368 -1.7623819 -0.09413769 -1.1199247 -0.8834529 -0.3827044 -0.1917155 -0.734052 -2.328153 2.2224033 2.2005646 -2.3401005 1.3483787 0.8880198 1.0797547 0.40731382 0.6794171 -1.5980334 0.6962472 -0.36342037 -0.9652318 3.6611545 1.3434782 -1.341874 2.6796534 -1.3719928 -1.664189 0.052976355 1.4135648 -0.20230165 1.3010297 -0.13076365 2.1968617 -0.47815242 2.125077 -0.87418365 1.0458919 1.2759364 1.5781906 -1.1346059 -0.41229463 1.5712525 0.0067570917 0.46967816 0.77836573 3.5785453 -0.19440967 0.39807326 -0.9573543 -0.993856 -1.0332036 0.2083724 1.5874676 1.3340305 -1.4605696 -0.61664635 0.3782532 0.08639376 1.5311338 -0.7612435 1.6253406 0.6073501 1.7127943 -0.017716166 -2.0936177 0.25616696 0.23584613 1.7214701 0.2561539 -1.7597456 1.3014451 2.7251568 0.871986 -0.6532903 -0.16224536 2.27918 -1.974618 2.3617086 1.1286044 1.4856828 -1.5235134
plate 1.2518545 -0.33695146 -1.772948 0.735553 0.74761784 -1.1064864 1.150803 -0.737221 0.067039765 -0.26472282 -0.32446024 0.39321637 2.7347307 0.2812372 -0.287914 0.033012625 0.74688625 -0.60971725 2.2560678 1.1544992 0.11206401 1.1576996 0.59323084 -1.4240613 0.6101822 1.7657934 0.31803766 0.7032977 0.32630578 4.056529 -1.5287462 0.45799187 0.81944096 0.7686456 -0.8198213 -0.95562303 0.99225736 -1.8034266 -1.1840013 -1.5110005 2.046937 -1.2287631 -2.2621946 1.6224376 -0.95617205 0.23106451 0.53978556 3.4807096 -0.9584117 1.8040978 0.14514776 0.34243703 -1.9629252 -1.0006542 -0.60364544 -0.2176542 -1.1818694 0.61669177 -0.2611523 1.9114097 1.2382072 -0.45504278 -0.9541128 -0.9214903 -0.39005873 -2.678574 1.1510873 1.1810322 0.4617714 -0.2517769 1.0623254 0.4497477 -1.3024417 0.51261294 -0.63350374 1.660839 0.50330186 0.84444726 0.8213989 -2.219343 -0.833877 -1.4077017 1.9366785 0.50570124 3.0447752 -1.1555465 -1.1630771 -0.6273878 -1.5069847 1.8421444 0.89124477 -0.53923017 -0.8999211 -2.6887572 0.97926396 -0.76272917 0.92060685 -0.9085649 -0.30317432 1.1985806
tennis 2.143799 0.13122475 -2.6341228 -0.45849255 0.15462804 -0.29741296 0.29506338 1.0117862 1.5590848 0.50101125 -0.38244635 0.7503016 -0.8262578 1.0612507 1.8323863 -0.3800376 -0.50925064 0.96207964 0.28322664 0.98904306 0.060911614 3.3115928 -1.1963613 0.8864843 -2.0346847 0.98692787 1.1229011 0.05495567 -0.5530879 2.314661 -0.71365654 -1.4640293 0.11983559 1.6439074 -0.65444463 0.4576358 -0.6437642 -0.6352136 -1.3755834 0.55769134 0.019740816 -2.8847141 -0.060608342 1.1095395 -0.7015943 1.6066915 -0.647289 -0.15450321 0.26917204 -0.5809445 0.68828756 1.1068766 -0.6062551 1.239901 -0.02671054 2.301374 2.1537004 -0.7015804 -0.24679218 0.20300332 0.28617942 -1.0552229 2.7886693 0.3533797 0.85313666 -0.95863146 -0.6868547 0.7267685 -1.4493275 0.91171265 -0.05577182 0.82761544 -1.609071 0.99905044 1.1018085 1.0976707 0.2517269 0.5722008 -2.2459319 1.2277521 -0.7512193 0.48778677 -1.4938548 0.68118274 -0.6871489 -1.126001 0.29196298 0.45311686 -0.92640024 -0.3046064 0.16326652 -0.8402676 -0.9040123 0.1422368 1.5132599 0.34089231 0.69118506 0.45256647 -1.2180096 0.5171601
train 0.29876134 -1.0455556 -2.331512 -1.7348936 1.3865163 -3.1520782 0.9070423 -1.2883737 0.230754 -0.05269499 0.25589165 -0.090075985 2.278409 -0.7311375 -0.13719572 -0.12805879 1.0042658 0.61451906 0.08030066 0.4352713 1.0375997 -1.1051824 0.86324394 -1.3246676 0.74152106 1.6312387 0.13314208 1.0857022 0.15476489 2.113159 -0.96664387 0.24098037 0.39938322 0.16742389 2.7211053 -0.27808312 -1.3105382 -1.8108529 0.25543228 -2.7886856 2.1291156 -1.4858228 -1.4340172 -1.3499947 -0.5208995 0.10162347 -1.2520579 1.5999979 0.13798223 -0.30168754 0.56133205 0.57636786 0.7165166 -0.07418726 0.4008484 0.61682516 2.0907931 -0.51627034 3.1995103 0.722888 0.41410047 -0.83905596 0.38559338 0.40239435 0.8328986 -0.39715755 0.5373271 -0.6324784 -0.3428078 0.20378473 1.3862822 0.115734905 -1.0713308 1.9778497 -1.4712398 0.041881803 2.1577575 2.2284942 -0.19906856 -0.65375483 -1.763647 1.5502667 0.38317627 -0.049116753 -0.29536277 -0.929222 -2.5096352 1.4486091 -2.4820035 0.6656819 1.4778498 1.1718159 -1.3292665 -1.445448 1.3724349 -0.98002356 0.06515151 0.2981519 -0.85223293 -0.090046585
road -1.954943 -1.6474224 -0.78793883 0.09000791 0.36851528 1.1052285 0.69270444 1.1395676 0.3007741 1.0401058 0.74877644 -1.4363106 0.30284262 1.5628301 -2.0816324 0.10940911 0.51410824 1.20596 1.3196065 0.5329302 1.1449964 -0.9162559 -0.15359071 0.052266993 -0.86582714 1.0062562 0.26586908 1.3192558 -0.9273717 1.9812819 1.0754604 2.1280582 1.4013507 0.4863291 1.0542827 1.7878832 -0.42820078 -1.9003104 1.4752461 -1.1158277 2.6900165 0.1699476 -0.87743 1.1729413 -2.2063644 -0.090895355 0.5006669 -1.7869554 1.4751211 0.0031222545 -0.45120224 3.7215676 0.2406371 3.3435063 1.0426003 1.2636638 0.8667868 -0.58669484 -0.36040735 -2.0805616 -0.96083504 0.14919797 1.2206599 3.043697 2.57812 0.0418501 3.3693185 0.0923673 0.42218015 -0.54673904 -1.1994711 2.555761 -1.2497927 -1.6006243 0.3078162 2.8366387 -2.4839172 2.9862397 0.516513 0.120149076 -1.2227368 2.1485739 -0.119626224 -0.8319471 0.8492129 -0.594133 0.7348277 -1.5807058 -0.39592344 2.2662685 0.44335833 1.2774162 -1.9116434 1.105907 0.48283508 -1.4280701 -0.53266984 -1.7778865 0.83061653 -2.61534
filled 0.5760648 1.1721646 -1.6452011 -0.19446559 1.3803687 1.5803525 2.0257704 -1.3407938 -0.27412122 -1.3807076 -0.122211955 2.5104434 0.316292 1.0347979 0.8944985 1.2522166 -0.24134704 1.3792183 -1.0657855 0.85431623 -0.62259144 -2.8133388 1.8595768 0.018338075 -0.64604497 -1.0057875 0.09380323 -0.000638538 -2.210955 -0.45606115 0.32303545 -1.134158 -0.6111865 -0.018402984 -0.02875539 -0.45957968 0.2489873 2.971565 -0.7499196 -1.4002086 -0.057893284 -1.4333272 -2.494921 -1.0664122 -0.5943485 1.1590648 -1.2681819 3.2010555 -0.2765643 0.07360762 1.0737506 -2.301942 -0.17722319 -2.7164576 -2.729724 -0.33434966 -2.1216109 4.0197673 -2.1310754 1.3925166 0.012703966 -0.22263601 -1.7791816 -0.5623091 -1.713717 1.1817882 0.8465868 -0.22717564 0.784088 0.21419595 1.7791451 -0.36231798 -0.60793275 0.93881506 -2.3387978 -2.326744 -0.6907468 -0.3225413 1.7518029 -2.2108355 0.5201784 -1.2567962 1.5015749 -0.57299477 0.016432293 -0.75004214 -1.9262712 -2.3429523 -2.06617 2.5207112 2.1734889 2.096822 -1.4929672 0.73715115 0.5928318 0.61720186 0.0972831 0.005596854 0.6614037 -0.5169737
food 1.2462263 1.3703743 0.21305962 -1.2695049 1.9859835 -1.0576061 1.2149513 -1.2937955 0.61126643 -0.03881044 -1.0226827 1.3437432 1.0360446 0.5187057 -0.9128684 1.822866 2.0074384 -1.7767425 -0.85858667 1.0399774 1.1767159 1.5359498 -2.2156816 -1.1214579 -2.014998 -0.50136805 0.5289117 0.012791344 0.24756476 -0.7121786 -1.4496822 -0.10926147 0.9320419 -0.16151352 1.249679 -1.312708 4.581434 -0.76178324 -0.23520699 -0.9655075 0.8039279 0.4457886 0.42116174 0.07770339 -0.3962533 2.1874976 1.1364156 0.5603202 2.3994765 0.32130095 2.67164 2.235784 0.68986845 -0.918977 1.1942863 -0.75318956 0.23077878 1.6396782 -0.8700648 -0.15923345 1.567225 2.1785495 0.20307237 0.15342577 -0.44148484 1.3684425 -1.9809515 2.4499943 0.113507874 2.128722 0.06708661 1.5982778 1.4361885 2.711192 -0.94719243 0.56109595 0.28157374 1.2584094 0.21088107 -1.110037 -0.10120797 0.08357781 1.4217035 1.8438543 2.1146014 0.7539645 -1.0377538 0.48459938 -1.5414947 -0.8789099 1.0572104 0.97184616 -0.6515175 0.13494538 -1.058092 1.2887636 0.35043976 0.8852765 -1.1129813 0.39200962
at -0.00017300554 1.257869 0.90443003 -0.34751967 -0.342832 -0.44271716 -0.9123271 1.057179 -1.1573775 -0.90430653 1.0341403 0.17569141 -1.3270018 1.9977086 0.98837465 1.8685513 -1.7128204 -0.23647721 1.223189 0.1345488 0.64693177 1.7472652 -3.4451385 1.1699771 -0.6058208 1.3869045 -3.0922563 1.564503 0.61439675 0.2835432 1.0135891 -1.7619064 -1.5671127 0.17528984 -1.9824381 0.8008097 4.543612 -0.4765496 2.7779303 -0.08477986 -0.5679122 0.8156865 -1.9851086 -0.7974089 2.7125623 0.42558426 -0.93520415 -0.56302124 -0.57726264 -1.7724296 1.3160102 -0.96226805 1.7427297 0.5976359 1.0006753 -1.8397007 -2.7983613 4.1858344 -0.8253673 2.2440796 0.32213232 -0.61585855 -0.6604629 -1.2100767 0.5802757 -1.5799978 0.75574344 0.7597686 -0.25945362 -0.6480877 -1.6240423 0.3695161 0.5191495 0.44156608 -0.79911464 0.35133117 1.4990484 1.3706528 -0.18511672 -0.6050553 0.9428934 0.5627002 -1.1567407 -1.1774853 -0.5097681 -0.7228252 -0.2998934 -0.69819677 -2.4147434 3.840372 0.13653412 0.8733506 -1.8295926 0.6870429 -1.8988845 1.366222 0.5848773 -2.2134316 1.639746 3.017811
an -1.5595546 -1.0510801 -0.24340618 -0.66874623 2.4066367 -0.093329795 1.6733152 -0.55182594 0.3816391 -0.9090489 -0.50459427 1.1338876 -0.31930745 2.1032732 -1.7367501 0.3903048 0.00040635813 0.40335676 1.3263727 2.222349 0.4467499 -1.2489759 2.4155629 -0.6278304 -2.045224 -0.09479328 0.19381692 0.46540317 -2.5561051 0.22653477 -1.4315786 2.6191518 0.5410165 2.0533788 -0.35329133 -1.7398026 0.7384774 -0.29192182 -2.6076806 0.09386418 2.0800364 -0.6579672 -2.2261934 0.77402294 -0.41531572 -1.579549 1.113068 -1.0860226 1.9050486 -1.3471702 -0.9185222 -1.4444495 -0.6587952 0.92242426 -1.9218719 -0.74081117 1.6876647 -1.3340356 -1.3254606 0.99643093 1.6141243 0.16824618 0.52385324 1.0734321 -0.43879852 -1.3814298 -0.84588265 -0.36846972 -2.226677 -0.8204295 0.6261057 -0.5329693 -0.08383809 0.1704502 -0.8206553 2.9225593 0.59155416 2.199715 -1.2638886 1.4392219 -0.49992663 2.1305907 -1.5108695 -0.028029697 -1.7700443 -0.25518847 -0.36742076 1.5975907 -0.07276093 -2.3462608 -1.3815464 2.911613 0.34286812 0.41906437 0.96688896 0.15701008 -0.31569383 -1.1015252 -1.7187593 1.4743688
dog 0.75724924 -0.3732234 -1.0813015 -1.9727067 -0.43290287 -1.2363231 -1.2006611 -0.88543725 -0.35837898 1.5076813 -1.6274 2.0291045 -0.86171716 -0.72098696 -0.20882478 -1.2756183 -0.77318215 1.0294396 0.78023994 -0.6839524 -0.18902776 -0.5087564 1.9454515 -0.35297626 1.8064461 -0.18727818 3.2998013 1.3860284 0.09281638 0.6155546 0.37557748 -1.2604254 -1.450137 -0.11968026 -1.1634117 -2.1662014 1.3575854 -0.41472185 -1.2869896 1.3767339 1.5494095 0.3442848 -0.89869934 0.10679766 -0.30919558 -0.59202003 1.7378211 1.4412599 -0.5320233 -1.5742271 -0.48006687 -0.93847907 -0.024606336 0.2285081 0.4736798 2.737739 0.9351869 1.1034561 0.95206994 0.5828852 -0.11703587 0.96844685 0.124520175 1.1915579 0.52257425 -0.93954134 0.86393124 -0.11616754 0.38187996 -1.2086715 1.2521163 1.0494671 -1.9677211 2.5815196 0.18897328 0.4399188 0.15076528 0.07247594 -0.9750814 0.91545975 -1.4256088 0.90291697 -1.7783614 -0.45992914 1.8710157 1.032749 -1.3993558 -0.4628302 -0.74095637 -0.19496496 2.0505 0.88709915 -0.6436564 -1.3265196 0.029684229 0.7968124 -0.47127572 0.9650151 -1.967579 1.0009055
room 1.3483286 -0.2223613 -0.5158301 0.01935242 -0.1250663 -1.4639748 1.0994601 -2.648882 -0.39401016 1.723957 -0.84063184 -1.5030274 -0.23316272 -1.4736271 -1.2584528 1.5622804 0.92017 0.15088212 -1.5348233 1.641273 1.676017 -0.36796448 -2.2535849 -0.43013978 1.804701 0.66020536 -0.917131 -1.2303566 0.91950136 -0.5861439 -1.95695 -2.7354143 3.0899677 0.4460163 -0.2548908 -2.1348739 0.22553302 -0.067870505 -1.0022666 1.577293 -1.3534044 -0.5760253 -0.104630284 0.8446547 1.2588925 0.7426926 0.69668597 -1.5364648 0.32111603 -1.5769308 2.8751364 -0.29117027 0.77960587 -0.35071445 -0.85881186 2.226434 0.7780957 1.8655138 1.9871168 0.5187064 0.27855587 0.9322849 -0.8216198 -0.52721196 -3.5640175 -1.6351393 -2.488904 -0.5204709 1.5615792 2.1482098 -0.429747 -2.1332114 -0.033950593 3.01371 -0.16594346 -0.9148784 1.2860785 -0.35840857 0.58136016 -0.52688736 0.6686289 0.8015973 0.026210718 0.18655276 -0.99262 0.17275204 -1.5455263 2.1467862 0.2040059 0.31838423 -0.34293956 0.9678105 -1.4254277 1.5489683 0.8562672 -1.1236892 1.6340562 1.1164312 -3.0354724 1.7163899
, 0.56321675 1.6024185 0.6019499 -0.19442056 0.07160325 -0.44226474 2.2411687 0.12303925 0.26479852 0.8863172 -0.9012215 0.3476025 1.3220767 -2.1437562 -0.59336835 1.6817247 0.0988612 1.7289912 -0.7656548 0.6556507 1.337416 0.07351406 -1.1580943 -0.2335413 2.6301696 2.1931422 -0.67064655 0.7579132 -1.847443 -1.6480285 0.24254459 -1.5166807 1.718117 -0.20783716 0.43812484 0.38303444 -0.002587512 2.605123 -1.480993 -1.116785 -0.76619273 -0.23484887 1.2995286 -0.04578124 -1.885911 2.9213948 2.1610332 0.55583584 -1.3784488 -2.4607475 0.98664176 0.41963455 0.20064846 -1.7655263 -1.3948369 0.50202656 -1.8379666 2.7068267 -0.08333172 1.5463 -1.8760982 1.1341941 -2.7048929 -1.6683393 -1.2435662 1.6155415 -1.6724154 0.12709445 -2.0538464 0.40399638 1.6679884 0.6362774 1.8894083 3.1688564 -0.7350779 -0.66039616 -0.95214957 -2.6517942 1.5496256 -1.8210651 1.8820015 -2.647761 0.6487333 -1.4685016 -0.014804056 1.6268345 1.4101291 1.7333355 -0.5042305 1.3765706 0.7182265 -1.0681101 -0.952326 -0.7054326 -0.1048478 1.8898278 -0.8788971 -0.19674307 -1.9384738 0.7333214
sink 0.17735964 0.10266944 -0.17783165 0.06342686 -0.68265724 -0.783663 0.65509105 0.05566578 -0.70338815 1.3395278 0.07301639 2.1109009 0.29756683 -0.38729167 -0.38752094 1.1444546 1.0866041 -0.61705756 -1.4122003 0.10827088 -2.2948935 -1.074093 -1.0449189 0.6333778 1.7382351 1.8161755 0.033367034 2.2395332 0.5408569 0.20311037 1.5635415 0.79380614 1.1881238 -0.81908584 0.2558503 -1.1144962 -0.5808484 2.1334224 -2.7264013 -1.2275201 1.5565691 0.7125082 0.97306496 -2.220313 -0.09813535 2.5530877 2.4422219 1.3699622 0.16294464 -1.0042819 2.2142894 0.805728 0.27992964 -2.0724316 -2.3624632 0.3384559 0.31625748 1.5246255 0.6408911 1.3947327 -2.645738 2.6360338 -1.4493372 -1.502695 -3.2512445 -0.1364523 -0.02503963 0.5842744 -0.010317681 -1.5686052 1.6166078 1.993214 -1.0972874 3.1844969 -2.5447621 0.40878794 1.7372392 -0.49548435 -0.15070403 -1.0571895 -0.42617527 0.12226056 0.81183064 -1.4411926 0.6452706 0.8730583 0.41049588 1.8474722 -2.7525396 1.4100541 -0.4435453 -0.22425297 -0.47128525 -0.50788075 1.1189693 -0.8402628 0.042781662 -0.66084623 -0.24835835 0.48497984
each 1.4064885 1.502653 -0.8256812 0.25473967 -1.0198629 -0.12069957 -0.22465433 -0.76083297 1.0554187 -0.823875 -0.3577542 -0.2632482 -0.6641634 -1.2857487 -1.6528623 2.7751973 0.92679733 -0.37485376 1.7869288 -1.9668075 -0.039477736 -0.717267 -2.0854383 0.22129415 1.0090207 0.82356393 -0.8580272 -1.4021456 0.1720434 1.0544319 0.028671557 0.85790616 -0.21402878 0.648872 4.1815753 -1.664537 1.233814 -1.1333477 -0.29544377 -1.4321731 -0.41443294 -0.58422965 0.15077254 -2.2607107 -0.8091938 -0.67198396 -1.0518764 0.6562673 0.3525961 1.1842283 2.282975 -0.7614704 -2.3603282 0.45174804 0.65477484 1.0510314 1.3569303 -1.5023842 -0.56297606 -1.7153358 0.57534623 -2.1592298 -1.9513657 2.7131565 -3.127269 -1.7359222 -0.8755949 0.10484497 2.0671353 1.4814196 0.8616349 -0.64952177 -2.4157214 0.49985394 -3.0362942 0.9964806 1.7049824 0.63323456 -0.52701634 0.6187088 0.8615878 2.943757 -1.5183513 0.42067382 3.5590503 -0.13696653 -2.6457868 1.2951052 -3.4875696 -0.34068745 -3.3971355 0.005269742 -0.87040055 0.2492256 0.56012 1.0277787 0.72371423 -1.2533233 1.6212837 -2.5195773
other -0.6098706 -1.1378781 -0.40372396 0.098620065 0.041461878 -1.0701548 -0.8894374 -0.9746678 1.7893937 -0.73094696 -1.0367998 1.8971779 0.32841903 -1.4455553 0.19951192 -0.60923433 -0.4951781 -0.20044059 0.040636025 0.6246873 0.3186118 -0.2584189 1.2981981 0.44343922 0.7096478 2.1404552 0.41700384 1.3157393 0.8013015 0.00763445 -0.23700544 1.8941095 1.1370785 -2.9469144 1.8795661 -0.25587022 2.5081336 -0.9671797 0.81385505 -1.5679562 0.15693432 -0.6239304 -0.88144124 -0.7429638 -2.038741 -0.37171337 0.5400866 -1.0088786 1.4040127 2.5325077 0.70885247 0.4397068 0.9120391 -1.0235461 -1.1146568 0.5978012 0.29315516 -2.0947618 0.5559205 0.36479795 1.8214262 -1.0639019 -0.7092335 -0.13962983 -1.8510499 -0.3577295 -2.3090904 1.7919055 2.034481 0.21351379 -0.20651685 2.0330997 -1.8172568 0.67940754 -1.7833587 1.963741 1.5215874 -1.397028 -0.9040991 0.4425456 1.6397619 0.73844284 -1.603129 0.35947523 1.5596403 1.8350698 -0.35302272 1.5148488 -1.709049 2.5590718 -3.6246235 2.8520463 -1.8295809 0.82167816 -1.5391786 1.8370025 0.9555702 -0.8415712 -1.7206104 -3.1865695
wooden 0.24483986 0.67397845 -1.3870502 0.8114044 0.1752094 -1.0575063 1.3161728 -0.16524746 0.30320305 0.5453462 -0.8259585 1.4911225 0.6047718 -0.71370775 0.71075225 -0.53964335 0.9229592 0.5113349 2.0392044 1.2949789 1.0440433 -2.9617295 0.66479594 -1.3230165 -1.6959705 1.0271939 -0.22894926 -0.7752531 0.23012508 2.257994 0.032344222 0.58234566 -1.3995502 2.6899421 0.005302356 0.2798885 1.1850463 0.4291607 0.105453044 -0.45626673 -1.8471338 0.76364887 -1.3268089 0.90592396 -2.960636 -1.8712157 -1.0214173 -0.63499546 0.6742626 -0.8409306 -0.67743874 -1.9393225 -0.11948399 0.46467137 -0.27826917 2.0599577 -0.89423823 -0.3218848 -0.34032387 -0.3558799 -0.53646874 0.50906575 0.6180682 0.07900499 0.21056275 -0.31239974 1.0236782 -0.3875364 0.37511918 -0.0037868773 1.4933616 0.43568423 -0.15510377 -0.35977486 0.90361905 0.9259447 -0.58103603 1.8961809 0.24471474 -0.7405621 0.7397872 0.38467726 -0.51507336 -0.15472119 1.8412191 -1.1090577 -1.6082072 0.8855799 0.09116493 1.4736607 0.5875521 -0.06232239 0.3611778 0.17773585 -1.3699301 -0.7174342 1.3394811 -1.0850807 -2.0324845 -2.4561625
snow 0.026434476 -1.4226273 -1.1778578 -0.7535757 3.3803015 0.41886646 3.3829105 0.025624678 0.67235816 -1.2089484 0.4914812 0.12017604 -0.053594947 -0.36308756 -0.38087046 -1.3035702 1.4157741 1.3561234 -1.7502402 -0.06248428 1.5345255 0.33510897 0.22744355 0.2332394 -2.6815467 -0.30292305 0.30577925 -1.3235866 1.4694738 -0.124547265 -2.0342793 -0.12219444 0.08932334 0.045208495 0.606138 -0.99887735 -1.2906144 -2.1501956 0.33087322 0.32828075 1.983767 0.07691016 -1.4731895 1.4303726 -1.4719813 -0.57228506 1.6829741 0.39251748 1.0782951 -0.4553526 0.9107671 1.7098404 0.17612487 0.56115985 0.87559 1.744409 -0.748882 -0.11738359 0.97709006 -0.015990118 -1.1539539 -2.2003527 -0.070383064 1.3434675 0.92302513 -1.9363222 -0.06469603 1.2033992 0.15399545 2.0125299 -0.03683613 -0.2186021 -1.1759554 0.42320502 -0.3682787 -0.7535084 0.93306226 2.0872278 -0.18001926 -1.8690308 -0.5820908 4.1319957 0.52150476 1.4163167 -0.87298465 0.7218379 1.4395859 -0.26889074 0.58365554 0.059751473 2.15193 0.28954583 1.0368179 2.3903117 -0.99635315 0.4570701 2.8371596 -1.5213882 -0.47378227 -0.0699157
bathroom 2.1555772 -0.9472571 -0.16559418 -1.3683225 1.2966144 -1.9411135 1.455946 -1.2690122 1.6560003 1.1603866 0.527556 0.5535551 -0.16782767 0.3543806 -1.0929435 1.0328075 -0.655374 0.3352554 0.054130472 1.343057 -1.4930291 0.9231312 -0.1733526 -1.9678694 0.26368558 2.0781972 0.93918985 0.36059615 -0.34117892 -0.17689784 -1.7653122 -1.344717 2.8897226 0.36648312 1.0302258 -1.9979622 1.0612606 -0.70102936 -0.21288231 0.45419523 0.54316306 0.2984119 -1.1186237 -1.7096953 -0.6205259 3.0337994 1.6681048 -1.7489407 -0.78604686 -2.3436394 1.763218 -1.1176404 0.63955283 -1.3393538 -0.35242063 1.4593403 0.85236114 1.5206921 1.3008238 2.627813 -1.2124087 0.2546732 -0.26292762 0.19939755 -2.0340877 -1.224246 0.7897686 1.030886 2.9369333 1.712535 -0.27421874 2.2000802 -2.8027952 1.3410791 -1.7258894 -0.08822151 2.3031335 0.20159844 -1.3865484 -2.453294 -1.4039682 0.8322945 0.59898096 -2.1111002 -0.4376724 0.13696148 -0.6634026 2.222589 -1.4540993 3.0619118 1.617812 0.11176608 -0.7578227 0.41253877 -0.32506776 0.09125709 -0.70631546 -1.1983033 -0.6225956 1.535266
up -0.039169814 1.5047073 1.7573721 0.5416665 -0.9488834 1.34161 -0.684684 2.4448042 -2.0774999 -0.010615172 0.9492904 -0.8837459 0.9292959 -0.30412686 -0.20553832 1.7143698 0.5045099 0.6425707 -1.7087762 0.014315934 2.3873062 -1.1901872 1.2906098 0.71263266 0.5666013 2.7947257 -0.702171 -1.015701 1.790412 0.37515828 -0.27627456 -1.3983052 0.48149094 0.5309141 -0.36163232 -0.49756092 0.07965507 -0.124582864 1.2255011 -0.30270237 1.6802306 0.87507224 0.82333785 1.3327581 2.921206 1.068996 1.1006899 -1.1487437 -0.8470152 0.64314216 0.16397172 2.9817104 0.87405217 0.86547536 -1.9000276 1.2932376 -0.12665112 1.2719058 -1.6610303 2.1511555 0.35655248 0.45821315 1.2804164 0.8600973 0.007922615 3.4132962 -1.1035318 1.5349696 -0.17423391 -1.5295252 -2.6109178 0.88414234 1.7292231 -2.4789212 -1.1983895 -0.765525 -1.2872592 -0.94852716 -1.5918705 -1.4440078 -0.20189165 -0.3443867 -1.1310385 0.5615874 3.532774 -0.30727708 0.16536169 0.1411826 1.0112704 1.142365 -0.054127358 -0.08693621 -0.46874523 1.841355 2.1031783 0.6537935 -0.44805 -2.8180213 3.3197887 -0.09698531
cat 1.4923811 -1.5166417 -1.4808354 -0.759927 -0.88017964 -2.1180644 0.90775245 0.3649605 0.35824782 2.2263448 -1.3181874 2.1061924 1.2951632 -1.4312409 -0.030434424 -2.2559905 1.177082 -0.005082349 -0.30533668 0.64487725 0.89021075 0.16429426 1.9440942 -1.6699866 0.26637036 0.5289562 0.7631292 1.7180301 0.4749413 2.3498852 -1.0464907 0.3235744 -1.9677501 0.51517296 0.34669223 -0.4099503 0.6392159 -0.22254355 -0.9056438 2.4749203 1.0551926 0.7744963 -1.1908053 2.0383525 -0.9209279 -0.66907275 0.95608705 -0.34118477 0.44293895 -1.1222959 -0.7497459 -1.5694011 -1.3812289 -0.25805983 -0.39464164 3.706414 0.78651273 0.06886114 0.63937986 0.79053926 0.40518045 0.7935869 0.027142301 -0.5760681 0.5107964 0.7354877 1.4290863 1.1103188 -1.365701 -0.40369526 2.5070398 1.8042849 -1.1642414 1.0657539 -0.33851492 1.9823706 -0.50408137 1.2112708 -1.4094962 1.6856406 -1.6118429 -1.2514627 -0.6455419 -0.055683553 2.400215 -0.010197828 -2.0014913 -0.3517219 -0.26471004 0.73319113 2.837403 -0.16852964 -0.49381706 -0.7648603 0.08070803 -0.2601491 -1.2579857 2.0100513 -2.506225 -0.42635855
front 2.7175605 -1.4417139 -0.5930557 2.284045 2.6788664 1.3673193 -0.16686217 -1.7880496 0.5306933 0.3726379 -0.18779416 -0.3147898 -0.49596262 1.8779054 -0.3201837 -0.5358776 1.2229675 -1.0425096 -2.264866 -2.7164435 0.3983822 0.73917365 -3.064142 -1.2649659 -0.56394005 -2.1711755 -3.4549465 -1.514446 3.553568 1.8945835 -1.7297161 -0.18080442 2.295917 0.93360937 -0.68909055 -0.4000428 0.3002517 -0.43625137 -1.500748 0.7638012 -2.9240146 2.7502422 -0.14437059 1.7501297 1.7450174 -0.99172825 0.45320818 -1.2877754 1.4738786 -0.6665778 -0.57812274 0.38130835 0.24458335 1.4646326 -0.9308013 -1.1659168 -0.102172665 1.6851512 0.71049064 2.4209764 -0.25037274 -1.235959 -0.2702051 -1.6335173 2.4310899 -0.3531805 -1.7193016 1.3521681 0.20075245 2.518093 -2.065796 -0.49657393 1.0952344 -0.7757451 1.7294948 0.43841946 1.8324018 -0.63677067 0.5156632 1.4633633 1.2867069 0.47301018 -0.9305181 2.089548 0.9113601 1.3027318 -0.15874623 2.1060703 -0.38007617 -1.4522802 1.692791 1.7896411 2.6379006 0.33386517 -0.5858928 -1.1101178 0.12209129 -1.3125072 -2.2206967 0.42035863
baseball 1.9602133 1.8872623 -1.0558829 0.81635976 1.5498244 -1.7993752 1.3717887 1.6889536 0.29147157 -0.6775408 -0.57937616 1.7141374 0.3713311 -0.52015114 1.5273014 0.86133265 -0.6401495 0.22081557 -0.1332023 0.5731176 -0.6218587 3.2165835 0.42620668 -0.21244322 -1.1188325 1.4134495 1.0817883 0.83743984 -0.99470747 2.5946233 -1.1881475 -0.18214127 -0.9656627 -0.24680899 1.466943 -0.81669265 -0.66824275 -1.2782551 -1.6226312 0.046900626 0.22695172 -2.1960468 0.26435664 0.93184197 -0.89834756 -0.8421119 0.06270132 -0.81186765 -0.73763 0.62866145 1.786825 -0.01782873 -1.684443 -0.31858206 0.9817529 1.4537593 2.6557927 -0.0217401 0.10016935 1.4797481 -0.34953895 -1.5972661 2.8879764 0.13896586 -0.09920384 -1.8185371 -1.3904175 0.13696507 -1.8110296 -0.23615207 -0.62966675 -1.1131759 -0.86479616 2.4262362 0.9192028 -0.7044635 0.71343005 0.57484686 -2.7479095 0.86316353 -0.3605127 1.1801735 -0.094142444 1.1194304 -1.3501801 -3.137834 -0.18098836 1.6575643 -0.13276327 0.45478868 -1.0893595 1.0391631 -1.9966227 -1.6790229 1.411866 1.2140628 0.38802448 -1.3711262 -0.9039473 -0.56991726
player 0.9784189 1.14415 -2.3441303 -1.8056089 -1.4394492 -1.2947695 1.0832552 1.3608062 2.1782646 0.78615516 0.22943953 1.2908794 -1.3045862 0.3671706 -0.14452839 -1.3242584 0.7271887 0.630819 -0.14859357 1.6225963 1.6195986 2.7165828 3.0153346 0.045921452 -2.640689 0.7629404 1.550725 -1.4983064 0.77930486 0.30589604 -2.6626804 -0.29180866 -1.3659408 -1.1626921 1.1329345 -0.76933527 -0.098095305 0.8982285 -2.669915 0.82606035 0.64272386 -1.510021 0.27940908 1.829197 0.46661764 0.7887962 2.003344 0.52659035 -1.9137634 -0.3754539 -1.7281716 -0.44928142 1.3324243 1.2377722 0.70315975 3.2344203 1.2907029 0.5385791 -1.6556585 1.5802717 -0.42622873 -1.1791819 2.0799787 1.9445103 -1.432522 -0.6795914 0.83230627 0.45616785 1.4471574 0.18422347 -1.8606538 -0.5636813 -2.2524514 0.58016247 -1.5248405 0.2888564 0.14638507 1.505652 0.20689745 2.3295767 0.84280884 0.89515483 1.8931777 -2.306699 -1.0954186 0.665235 -1.7793161 0.4944819 2.3876202 0.12344611 0.64303917 1.2394453 -1.6036594 0.57029927 -1.1996697 -1.4022572 -0.59523624 1.9523711 0.24246079 -1.3711278
person -0.3721605 -1.1237026 -0.65867513 -0.29984042 -0.74504864 0.1582021 0.23584095 0.6471066 0.6495021 0.9752741 0.46234214 0.82314956 -0.6553047 -1.6972921 0.3886983 -1.1946645 -0.08379877 1.248217 -1.2632632 -0.31469166 2.0868616 -1.9185064 1.8996208 -0.2752042 -0.019241719 1.6264068 1.8576989 0.105508365 0.026574021 1.7799152 -0.085451484 -1.4355221 -1.782032 -1.159674 -1.1861668 -0.50981945 -1.465444 -0.20394741 -1.2370096 -0.98946935 -0.77112454 0.37147403 -0.24446796 -0.3387315 -0.5725211 -0.7797921 0.5418645 -0.108367555 -0.4264257 0.31416717 -2.0665708 0.08026185 0.31099144 0.85907346 0.48376653 2.8501003 -0.1713316 1.6761411 -1.261654 2.7076344 -0.35136318 0.6349667 0.923121 1.1854872 -0.010247532 -0.26248774 -0.21664077 -0.036267377 -0.8315378 -0.6018081 -1.5763634 2.0470603 -0.94548905 0.075890884 2.5408096 1.5413328 -1.7509719 0.81000173 0.45755705 1.1477103 0.58743185 0.13369457 2.9762452 -1.8395431 -1.4746137 -0.039892633 -0.0434004 0.57820207 3.1311674 -2.385996 0.36004677 -0.04824171 -0.047696356 -0.8503545 1.8360249 0.4920251 -1.4618161 -0.8159165 -0.024423387 2.4632072
toilet -1.23419 1.1714807 -1.1394997 -0.85009277 -0.9501379 -1.0118494 0.19978301 -0.28583872 0.55264497 0.5034174 -1.5166581 1.5123754 1.7295997 -0.6669271 -0.73792696 0.38464525 -0.5364959 -2.4944003 0.46270883 0.57279915 0.0034431128 2.1750026 1.1657174 -2.7536018 0.12516081 1.2916433 1.0123719 3.0777812 -0.13510379 1.5440341 -2.410025 1.0485051 1.7898234 1.372513 -0.009519972 -0.37104678 -0.20164186 -0.8084388 -1.0692843 0.047909077 0.9518668 -0.68862593 -1.0714262 -1.5968473 -1.0721436 2.639931 1.3743258 2.378427 0.5414166 0.38243297 0.957921 -0.26689294 -1.0721226 -2.3391001 -1.4565943 2.005558 0.27235973 0.8477038 2.7633996 1.9814389 -2.0181544 -0.2206625 -0.5220073 0.14514492 -1.7881423 -2.2307067 1.2638888 1.8803866 2.0853026 -0.4573914 2.232902 2.8018863 -3.094503 1.076849 -2.2729466 1.9614277 2.5329797 0.9177646 -1.2393496 -1.1986679 -0.83402807 -1.017887 -0.49501657 -0.9273674 1.4099691 -0.21391545 -1.4890597 1.7141175 -2.800298 2.0716274 -0.0030344012 0.49654883 0.6404791 -1.9439881 1.2819718 -0.70624924 1.3730094 -0.63084203 -0.6084829 0.12584205
covered 1.5866693 1.2259133 0.17172045 -0.8817777 -0.9046846 -0.23987259 2.8354301 0.79479104 0.82850873 -0.29930317 0.64030254 -0.106106 -0.22983155 -2.94345 0.17100614 1.3729955 -2.4568083 3.0268166 1.7668872 1.1247276 0.8132986 -1.1926292 -0.24745856 0.58916694 -2.4232435 -0.14434038 0.20754227 -0.31458148 -2.9492826 -0.60747665 0.6484644 1.4231391 -1.4161102 0.5248526 1.874674 -1.4026693 -1.3481078 -0.6184248 0.8466454 -0.13027628 -1.6562735 0.3336666 -0.7383789 -1.1041542 -2.8463256 -1.3496788 -1.5184333 -0.13945247 2.0604913 2.6306143 -0.16708626 1.2485417 0.19255742 -2.4109912 0.456737 -1.2430469 0.45233336 -0.83787477 1.8446765 -0.6797589 1.490797 -0.22382987 1.6241993 3.2642405 1.7161993 -2.305872 1.7098161 0.16413552 -2.7763507 2.1002526 2.1111507 -0.6252705 2.0353615 -1.0238056 -0.8087878 0.09782754 -0.79191446 -0.031776786 -0.98301107 0.3130833 -1.8267534 0.17262405 1.5244385 1.9518238 -1.4140757 -1.5376635 0.08860402 -0.123663925 0.6045241 -1.6456456 -1.992503 0.15413623 2.2651398 -1.4319694 1.0730937 -0.89225584 1.3100615 0.36753598 -0.40926334 -1.9640466
flying 0.9804223 -0.78126675 -0.511473 -2.4069672 2.064607 1.0011117 -0.19117619 1.3887082 -0.6799131 -2.6205075 1.0208393 -0.38556382 -0.5551152 2.3567653 2.208773 0.5459992 0.57385886 -2.4995801 -2.1783829 2.9250367 -0.25798088 0.34112003 -0.58938855 -0.28751495 -0.53366506 -0.6165013 -0.6440311 0.027701633 0.9579033 0.3862936 -2.010449 -0.8614877 0.63289607 0.28238088 2.2757962 -1.8595425 -3.1517427 -1.188249 1.5012894 1.3589169 1.2315209 -1.5409105 2.9939198 -3.2622917 0.7987727 -0.024123816 -0.87287426 1.8723987 -1.8720433 -1.9990413 -0.643125 -0.07525512 0.11569562 -1.0875477 -1.4235787 -1.7354641 3.206803 1.1324904 0.14995866 -0.048608247 -1.0103128 -0.11815715 0.66154337 1.3181138 1.9701442 -0.11387177 -0.0773746 0.7091584 -0.2705824 -0.6961839 -2.004851 -1.1497684 -1.0801783 -1.6700076 0.41875282 1.2947608 0.71914846 0.53721714 -1.8821818 -1.0010362 -2.8876271 3.393506 -1.3151162 -0.9469797 -0.1510346 3.1639607 3.6233892 0.49678084 -0.6272507 -3.519298 2.2178013 -2.213227 -1.8600299 1.4664122 -0.4673011 -0.6243875 0.060226317 -0.36684608 1.5785218 -1.275293
beach 1.1833956 -1.3085083 -2.8352895 0.15285376 1.2102957 0.30646047 2.5917702 -0.6344061 -0.5502825 -0.9760705 -2.9187407 -0.9127936 0.37056616 1.1645795 -0.24804753 1.0719621 -0.67273295 0.5523144 0.52782255 0.47409496 2.4385355 -0.6053467 0.5555699 0.35035923 0.23979944 0.78038734 1.3431853 -0.9133547 1.6342351 1.6286253 -0.07596617 0.9427692 -0.79019874 0.3732254 0.41247675 0.086176306 -0.88941175 -1.1859016 -2.651552 -1.4779961 1.720399 -3.6234925 -1.1420772 1.610258 -4.439211 -0.16855307 0.6294358 -0.07084498 2.2617238 0.7738081 0.8755378 -0.49199343 -0.7771396 0.76479733 0.028963393 2.4157803 2.2120755 -2.564334 -0.47304395 -2.1919496 1.0295825 1.0096207 0.5115201 0.40859252 -0.3070683 -1.0946559 0.84161276 -1.8031563 -0.5400154 -0.5982809 0.9928799 1.4400995 -1.3671556 -0.92818826 -0.67608076 0.958754 -0.7872428 1.195095 -0.678741 -1.1477597 1.6420887 2.412302 -0.44308358 1.0454241 0.72957957 1.8656247 -0.85539633 0.39907667 -1.0383188 0.5453039 1.7735382 0.5676756 -2.7738132 0.65384644 0.40581217 0.34123537 1.5746125 -0.19972864 0.23313858 -0.982703
kitchen 3.0859725 1.1192032 -0.924853 0.4518731 1.373211 -1.1228224 1.5590078 -1.5331484 0.74978197 -1.1080514 -0.7055935 0.242598 0.85012037 1.0031067 -1.3810288 0.75075746 0.036126018 -0.22022083 -1.0841931 0.50031364 1.3914444 2.0249956 -1.0867091 -2.377911 -0.9202692 2.5829022 -1.0136105 -0.66884226 1.3267845 0.6276501 -0.6251825 -0.30650175 2.8324206 0.03262055 1.6597555 -2.38447 2.3427536 -0.918515 -1.1442145 -0.23275791 -1.3364885 -1.0234045 -0.37367716 -0.63218784 -0.8756229 3.345976 0.8914054 0.15523446 1.5663033 -2.6641495 1.2691591 -1.8408138 0.04932789 -0.75075716 0.40222412 1.0739918 0.042709943 1.3913805 -0.5835644 2.402289 1.6027197 -2.1720836 -0.46593103 -0.20478049 -2.3332565 -1.0798144 -0.64539266 0.82771826 1.5086764 1.3963041 -0.85115427 0.2969575 -1.9863452 1.3132452 -1.9865289 0.8921875 2.1555266 -0.23125507 -0.09352506 -1.1264181 -0.47613302 0.8413778 0.51083344 0.9211619 0.042592928 2.81895 -1.0515218 2.0643597 -0.51804936 -0.22169667 0.65582126 0.7690959 1.0531247 0.7801878 -0.84499264 -0.2571118 0.50397015 -0.46778184 -0.57435244 0.16242
red -0.1770658 0.7582846 0.2789043 -1.2054123 0.5698344 0.851442 0.7982466 -1.6689408 0.21364543 2.396547 0.5108925 0.262181 -0.63176167 0.0103129 -1.1908017 -0.77680105 0.8437357 -0.50210077 0.7038336 0.56168854 -0.22160782 -0.2693299 -1.147351 -0.5096856 0.7302263 -0.8770835 -0.78204536 2.0030038 -0.8148924 0.31506273 -0.64356625 0.40486068 0.8780056 1.239698 -2.201553 -1.2390128 -0.07688694 -0.42577434 -1.0386882 -1.0057582 1.0313264 0.067092136 -1.5426897 1.0659816 0.716435 -0.7366591 2.293697 0.35676593 0.040444586 -0.0037219822 -0.2079368 -0.73616195 -0.8706164 0.5557098 -1.7098838 0.0573558 0.00438108 -0.3460352 1.3634801 -0.3696025 -1.2542645 1.6370093 -0.23333077 1.2609262 0.92509675 -1.3690647 1.1531069 1.7681328 0.24318972 -0.4259612 0.14786798 1.2333617 -0.833903 0.70745575 -1.413443 2.0428998 1.1863648 1.8403524 0.4823943 0.35026783 -0.13892032 -0.41721454 0.52463555 -0.20187537 -1.575062 0.63006705 -1.9462593 0.51032084 -1.5324539 0.12529255 -1.4937456 -0.05698987 -0.373292 0.19096479 0.7277002 -2.3618758 -0.08648687 1.1300633 0.24459235 1.2225435
large 0.01857164 1.476954 -0.5732483 0.69128335 1.6311079 0.14168413 0.39314502 -0.20080963 -0.04058786 -0.07597794 0.3470668 1.3293104 0.08778557 0.86160433 0.55772454 -0.16652262 -0.4232345 0.45048282 0.6227842 0.2783544 -0.12622684 -2.2142255 0.43637568 -0.5833516 -0.27361345 0.5987432 -0.33772874 0.18942085 0.3094185 -0.3177345 -0.69465995 3.197134 -0.6723623 0.2184194 -1.3780018 -1.3310734 -0.52804214 -0.26627076 -1.5902886 -0.1978227 0.65275764 -0.003679968 -0.43478116 0.82222164 -0.5694608 0.49243695 -0.71354526 -0.78527516 -0.38304427 -2.1595657 -0.66557443 -0.8434723 -0.24247222 1.4036466 -0.6439762 -0.43528962 2.385458 0.64074755 0.36571094 -0.45993403 -1.2269232 0.21724916 0.505107 1.0375731 -0.60883534 -1.1543268 1.5759617 -1.1086415 -0.5597022 -2.9030678 2.374338 -1.4088821 -0.560942 0.30391538 -1.0107856 1.2234474 -0.7565272 1.0655162 0.60760343 -0.4297598 -1.6481847 0.5317891 -0.45682302 0.6303616 0.7708483 1.0134921 0.80260783 1.6642534 -0.6594344 1.787182 0.736151 2.5035508 -0.34476233 0.42302817 -0.6385781 -0.94534075 1.5393236 0.10224579 -1.9301991 0.18348233
skateboard -1.6205797 -2.338558 -0.9930301 -0.7269882 -0.18291636 1.0843798 0.057206947 1.7702186 0.82943654 -3.23698 2.0185122 1.4639767 1.3528733 -0.14779371 -0.59110105 -1.0712719 -2.1641157 0.8832358 0.2181532 1.5691284 -0.102708146 1.7465646 -1.3037118 1.1030128 -1.0046905 1.9631013 2.0330496 -0.9114979 -1.1783613 1.155142 0.6197742 -0.34079185 2.390168 1.1656659 1.1898679 1.9297351 -1.3184634 -1.5918214 -0.011499499 -1.0437845 2.3987162 -0.6259638 0.53441507 -0.9402558 -2.3994966 -0.15575282 -0.7193244 0.8565248 2.4004314 -1.7479092 1.4649374 0.5242837 1.2183312 -0.72202516 0.11815709 -0.03485134 0.078983255 0.47167996 -0.36064938 1.4854794 -1.4414771 -0.1964011 1.1621071 3.3877554 2.1203094 -0.8525254 0.18348081 0.5357608 -2.8392067 0.6521718 -1.0909973 1.0636358 -0.64033514 -0.33982038 -0.98002607 0.1406384 1.280416 0.82267755 -0.9823651 2.7381673 -2.8453462 2.4860232 0.39086583 1.0068883 0.08341284 -1.0785401 1.2052051 0.22363552 0.66067696 0.6801032 2.3965547 2.2669027 1.8747017 0.40150508 1.5777436 0.31915823 1.3446736 0.30482498 -0.23985682 1.1242775
building -1.1286595 -2.6900687 -3.072968 -1.6681585 0.32373708 0.13042757 0.10014398 0.10471726 0.3021394 1.4983022 0.2820497 1.1486366 0.8029514 0.3914465 0.5272818 -0.87216717 0.79416645 -0.2024853 -0.8216512 2.1339865 1.8297914 -0.74388134 -0.21282189 -0.14291616 -0.9624015 1.3597167 0.25024718 0.5077666 -0.6679023 1.2174526 -0.16012534 -0.11523067 0.38246974 1.4950432 0.8261603 0.041023955 1.5920769 -0.26837134 0.0919842 -0.24548091 1.7082288 -0.09279567 -0.45844397 -0.6131421 -0.026480595 2.4059265 -1.0700825 0.22954369 1.377575 -1.0078232 -0.62351125 1.9246359 -1.127175 1.6664227 -0.06492813 0.58365124 1.1118453 -2.2282703 -0.36563736 -0.7865474 0.62301517 0.16980208 0.5764265 1.8714353 -0.72292453 0.64253974 2.2715106 -1.2683034 1.8429307 1.2477275 -0.4309569 -0.40662134 -2.7682552 -0.047473706 -1.1675138 -0.7873729 -0.19304359 1.4843291 -0.28453332 -1.4204729 0.1252559 2.812288 0.67767996 -1.3564857 0.061689135 -2.2769287 -1.982868 0.059122182 0.4047079 0.9809119 -0.6675468 0.6355885 -0.6464361 2.1340332 1.1236869 -0.297291 -0.81716806 -1.9041709 0.34583825 -0.22973536
that 1.0635844 -0.6989336 1.9457684 1.0119987 0.0886899 2.3423364 -1.0440696 -1.2853667 1.424994 0.09808796 1.4066354 0.0317571 -4.126971 -0.43927133 0.37727532 -2.018252 0.819752 1.7923281 -1.206551 -0.59373945 -0.1792463 0.009239917 -0.2636495 -1.2989204 -0.9346943 0.24266951 -2.0470612 2.6211774 -0.8489555 2.5250773 1.2047079 3.2189631 0.3475139 -0.016373323 -0.85326105 -0.2948176 -1.4911011 0.845521 -0.32719275 -0.19738357 0.9781313 2.0289564 0.5200003 -1.1481485 1.0315849 1.1284719 0.11620082 0.26611483 -0.3644695 -2.7701175 0.14725885 0.7968356 1.440608 2.8325942 2.1918993 1.398111 -1.5689945 0.056960203 -1.7095728 -0.7382199 0.83345264 0.48089945 2.2328496 -1.0734897 0.15040371 1.5543033 -0.03477199 0.7628005 -0.21596752 -0.620259 -0.16080475 1.1977861 0.50575405 -0.43358377 0.02194021 5.420198 -0.878969 0.67219186 2.368827 0.4310252 -1.7759061 0.80436975 -1.7298559 -1.5278395 -1.8875849 -0.09941911 1.2092353 -0.59609777 -0.6973212 -1.4776608 0.3186609 -0.54650027 -2.9195573 2.4140055 0.37290874 -3.259917 0.034915764 0.9484339 -0.17634773 0.099625774
court 0.7252422 -1.5576088 -3.4591773 0.41789606 1.8775561 0.9850279 1.7320719 -0.973343 0.70965326 -0.730693 -1.4210501 0.42483747 -0.14942372 0.76537544 1.3906876 -1.5440108 -0.62856346 0.51596886 0.54261076 1.8514353 0.9763513 2.5600734 2.1361563 0.32509184 0.31527898 -0.4247939 0.26211876 -0.40259865 0.21306892 2.7777689 -2.6089985 -0.19756897 0.40587294 1.9268974 0.6655503 0.10401191 -1.4140804 -1.8180299 -2.768409 0.87788326 0.49233666 -1.8448894 0.16925794 0.43210393 -1.6694547 1.402876 1.4979893 0.95138496 -0.51135695 -1.0051913 0.6982092 1.586929 0.50120854 1.0854543 0.5651158 2.488243 1.5058391 -0.61136556 -0.9983207 -1.8341734 -1.7283869 -1.9159666 1.1668438 0.41247064 2.3122556 -0.58331746 0.006934216 1.0602818 1.5933062 1.9478791 -0.89778155 1.2810276 -0.9713889 0.015277792 0.74032986 1.0665524 -0.53661305 2.3676863 -0.36734924 0.57620543 1.4124895 0.7977107 -0.5805915 0.9146914 -1.0459961 0.5108877 1.2350979 -0.08281729 -0.9272443 0.42294767 1.2213136 -0.69326425 -0.35684535 0.78059864 -0.48578542 -0.0810014 3.4400198 1.6664977 -0.3854857 -2.99982
young 0.38791853 -1.0250577 -1.0120442 -0.9630763 -1.9503958 -0.68450075 0.30294007 2.052228 1.0476004 -1.1342717 1.8741764 1.1328613 -1.2625738 -1.455113 -0.3054505 -0.13188452 0.40975103 1.8889401 0.1270756 -1.452642 1.6498523 2.0743616 2.160988 1.4866902 -0.67087424 0.5813324 0.35878676 0.4899252 1.3157485 0.85401225 1.2693787 -0.77998203 -1.0371003 0.92931473 -0.08393974 -2.229199 1.426056 -0.61223423 -1.0587512 -1.8195634 -0.8543153 2.6965814 1.1272743 -0.24147741 -1.0326936 -2.4593077 0.8769079 2.0440245 1.8726473 -0.66420645 0.6320357 2.0599275 0.14839919 1.9829526 0.17206308 0.4445555 1.2354002 1.0935189 -0.10620895 3.2912855 -0.5281578 0.23658502 1.1419772 2.3344936 0.7855873 -1.0837514 -2.1007843 -0.72833806 -1.2964259 0.523518 0.78736323 0.6354963 0.384235 -0.26548514 1.6087965 0.12885158 -0.4142271 2.4975815 -2.2783282 0.005649273 2.8393652 1.3188448 0.08355279 0.2818176 -0.5558788 -0.537424 -3.021497 -0.9453887 -0.21103899 -1.000437 -2.6548097 -0.16869858 -2.0923684 0.4971814 -0.25534195 -1.8930364 0.22671503 -1.8854446 -0.7071462 0.86065316
black -0.11849391 0.4726366 -0.08557309 -0.50844127 -0.84062266 1.5273584 0.64032054 -1.0145051 -0.52535033 0.722899 -2.3124795 -1.1127528 2.3367722 2.9315794 0.5875295 -0.5037023 0.59888387 -0.360824 0.8834754 -2.144467 0.75495833 -0.84430206 -0.07979469 -0.9963651 -2.43369 -1.2884784 1.211146 2.9335947 -0.74988943 0.1860907 -0.5117834 1.0261972 0.8176365 1.2351918 -2.2201562 -0.98322314 -2.7343934 -0.06451374 -2.7437134 -1.6927065 0.22442329 0.3659762 -0.5030154 -0.6947866 -0.65325713 -1.2834034 0.7975961 0.49007374 -0.7829046 1.580209 2.1474545 -1.4918834 -0.784971 -0.6871987 -1.5578912 0.9902421 -0.26932532 -1.3432641 1.8097385 1.3971591 0.74530476 2.3554163 0.019445788 -1.6687062 -1.6408235 0.5873666 2.109494 1.8409827 1.4006248 1.1429517 0.42733514 -0.86625457 -0.1729285 0.21740745 -0.83617884 -0.2748929 1.2826756 0.7654107 -1.2003971 0.40274742 0.83576244 0.27813256 1.5290955 0.4454124 0.06383471 0.56551045 -1.7573336 2.2588842 -1.5735928 -0.67028445 -0.47419697 -1.7815753 -1.1244218 0.677321 1.081838 -1.4134877 0.60822916 -0.87329566 -0.9401503 0.9823471
parked -0.9849732 -0.03534554 -2.5925388 -3.3000655 -2.8438563 -0.7586476 -4.9008813 -0.77957195 0.3619304 0.73620665 0.90291 0.99396205 -0.32330143 -0.7655906 1.0216906 -3.4472644 1.3041874 -1.4159082 -1.5221415 1.8974223 -0.010115338 -0.34037894 1.8103454 -3.753259 -2.249286 -1.4555465 0.5168087 0.9303081 -0.51168334 2.1254082 0.24545799 -0.58546734 0.56095153 -0.9393535 1.0342679 -1.170903 -1.4378997 -0.08862581 0.8346632 1.2049007 1.9057332 -0.3890331 -0.24263628 0.6908923 -0.5829347 1.2761523 0.6319595 1.3711091 -0.29998642 0.14168064 -2.285529 1.2458807 0.25978455 5.3057723 -1.2516061 -0.28190634 2.6210463 1.3189902 -0.1509573 -0.51828253 -0.059528694 -0.01013883 0.215319 -1.1162679 0.76197886 3.0302255 0.5290025 0.1658898 1.7080395 0.24791595 -1.2630925 0.8849928 -2.617491 -1.0515672 1.6387606 0.5895133 0.27056646 -0.10219172 1.7308595 -2.8345933 -2.7135077 2.016206 -1.797127 0.111546405 0.4288376 1.3170143 -1.3462788 -0.00031165578 0.24069914 -1.1379094 -1.2573915 -1.0163143 -1.4889913 1.3457476 0.9318504 -0.0021080598 -2.8343887 5.5498376 0.16670826 0.26778874
sign -2.2385478 -0.595939 -3.9750657 -1.9291328 -1.9036208 -1.3350719 0.2616694 0.24790044 0.10408943 0.25808 0.37298295 1.3365685 0.73417336 2.7544181 -0.44897977 -2.0292041 0.8451842 0.08948057 -2.2458408 1.6250491 1.0431062 1.3827072 0.37459588 -2.8263812 0.07450441 -0.5593519 0.7156501 -0.3158688 -2.623298 1.9657177 1.7541227 -0.10279702 1.9909238 0.21384525 2.2816367 0.9356528 0.22722931 -0.9269249 -0.6628238 -2.361796 2.7278316 -1.3363943 -1.7785606 -0.7742955 0.16365363 1.7041695 -0.28230208 -0.09204728 -0.88908684 0.7119954 -0.1837091 -0.9576338 1.287214 -1.1901704 -0.28620905 1.0361214 1.3071225 1.582235 -0.32153553 -0.21397841 0.1282036 1.3323876 4.199706 0.21146895 1.10355 0.19247447 -1.8534434 -0.22210215 -0.6329359 -1.4795713 -0.20693363 2.9402125 -3.044665 1.0070896 0.53669494 0.32045215 2.8152287 1.2502433 0.4822318 -0.65460366 -1.8679446 1.3609241 -0.2870249 -1.3156507 1.34622 -1.8888344 -1.212419 -0.675048 -2.6647635 1.1308528 2.3614967 -0.1034336 -1.8039263 0.6473038 1.2473847 -1.0701826 0.01671618 1.6168296 -0.085755885 -2.7896001
bed -0.0143856 -2.3317876 -1.263342 1.149008 0.57333326 1.0944674 1.7445197 1.1637065 -0.70914364 0.27367398 -2.6691508 1.1999933 2.3641648 1.9551653 0.91393775 0.3579149 0.15211396 -0.35723495 -0.52965945 0.73807126 0.743313 1.1781554 -1.595634 -1.5825983 1.3356485 1.4710587 0.81472665 2.716114 -0.12659398 0.91507065 0.46452144 -0.6731278 -0.02490587 0.38558406 -0.14602685 -1.1269579 0.858866 0.26531538 -2.142942 3.7191098 0.3744444 -2.5792146 -0.7089368 -0.019491894 -1.9514298 1.1722876 0.6411356 2.0546117 -0.5686456 -0.45618206 0.74541616 -1.5636356 -1.3129777 -2.4568322 -0.6074713 1.9123441 0.9056515 1.7280675 2.0459614 -1.2411945 -1.5674312 -0.9028573 0.10623939 -0.9392291 -1.1415871 -2.3732402 1.2123212 1.6042494 0.09648742 1.1544312 1.9337947 0.78556025 -0.7929865 0.1059181 -4.1286917 1.4382787 1.0104283 0.6634696 -0.65689754 -1.6417214 -2.4258742 0.04420866 -0.266002 -2.031083 2.7185814 0.47867188 -0.27573946 3.6041384 -2.5015783 0.82005787 1.5399696 -0.74188536 -1.8590388 -0.58728075 -0.60841036 0.49432418 1.5163462 -1.1022341 -1.0637225 -0.9745833
couple 3.1770039 0.6212664 -2.3431597 -0.71060705 -0.1346762 -1.6905113 3.8365552 1.1542579 0.50622153 1.5751617 0.23532577 0.34063578 -1.0945014 -1.702783 -0.122895524 -2.4218435 -0.7653224 0.9272319 -0.6724527 -0.8495979 0.87855935 -0.13302068 3.6751163 0.07611607 -1.1937796 -1.211248 0.8200542 -0.15290298 1.2972704 1.5470704 1.3036339 0.83915603 -0.5149156 -0.0428275 -0.20927772 0.35313925 1.2574048 0.21754104 0.28249615 0.09584024 -0.012652685 0.34182268 0.40837145 -0.9668904 -2.0503469 -0.29897088 0.11733834 0.23304167 2.179176 -0.7116309 -0.005337981 3.2292373 -0.88935685 -0.77515465 0.3174265 1.2995871 -0.6193636 -2.416079 -0.117890425 -1.3099 3.026601 -1.0877196 0.9914376 -0.730795 1.0854559 -0.1451577 -1.1376463 -0.7457466 -0.80425185 2.710354 0.7476763 -1.7974387 -1.3188846 0.25600943 0.08905117 2.337231 -0.954659 1.1740603 0.3108727 2.0261426 -0.6464238 0.7552125 -1.350919 -1.9465626 3.010553 0.25224268 -1.3758929 -1.794533 -1.01236 0.6480917 -0.0017573114 -0.43665347 0.11470437 0.4153007 -0.38046068 1.6184596 -0.8210059 -1.1676612 0.04501113 -1.4730774
slope -0.6134683 0.72362363 -0.55490446 -1.0230209 1.8000697 -1.3560282 2.5638938 -0.23491347 -0.12022976 -0.33213374 0.46129358 1.2658343 2.136926 -1.6807601 -1.3772115 -0.6664166 1.7893414 2.99724 0.18959421 2.2755585 0.7817347 -0.25521752 -0.30123508 1.6034474 0.8953524 -0.44242564 3.1966753 0.3355937 0.74584705 -1.0149397 1.8520017 0.40886304 0.7008248 -0.7614421 0.93793625 0.61340904 -3.2711868 0.09534821 0.5161001 1.5048014 -0.090664156 -0.93155915 -0.17402394 -1.5613662 -3.8862543 -2.4102018 -2.3648832 0.3903988 2.9374342 0.4072973 0.60386777 1.8147416 -0.28503397 -0.88753444 1.8039004 0.06745576 0.29831916 -0.17588878 1.3075387 1.1151787 -0.41599146 -0.83976436 -2.2426882 1.2801226 2.2173862 -1.9276887 0.4760624 -0.39434472 -2.3397427 3.1899636 0.49492207 -2.0478241 0.26291797 1.7118697 1.164452 2.318726 -2.4812667 2.8582268 -0.70187265 -1.5721917 -0.24316621 0.15068294 2.2555473 2.270427 -1.2876449 -1.0604746 -0.35438108 -0.6755881 0.06504594 0.97967654 1.582184 0.48286667 2.2373176 1.4832314 -0.6887549 0.019787746 -1.2868656 -1.358088 -0.5686158 -0.42830983
bench -0.9579893 -0.69715255 0.120742805 0.92345196 -0.22855891 0.73297536 0.0006003039 -0.76328295 -0.059687052 0.80557 -0.4292116 -0.322196 0.19678862 2.0957272 0.3519624 1.4325541 -0.9995971 -2.203665 -0.9770592 0.6218453 0.10149734 0.9819846 0.75814694 0.11673149 0.3788384 -0.1838928 -0.6603719 0.4756521 0.5208726 0.81734174 -1.4747516 1.7947986 0.578705 0.56880796 1.9032161 -1.2721546 -0.13730618 0.15939946 0.76085806 3.123345 1.7671599 -1.2248769 -3.0108018 -1.342777 -1.0789498 0.83648145 -1.3909186 0.14582479 0.45664597 0.94506603 -0.6633456 -0.60841644 1.0531034 -2.0449114 0.039260473 2.4152093 2.1630638 -0.050618663 0.3076923 -0.38773295 -0.30497584 0.075280495 0.9282432 0.0018653814 -0.14406006 -1.5954685 -0.4545147 0.15869546 2.5064616 -0.6810581 0.9865056 1.8484108 -2.8347862 -1.4366626 -1.9206446 2.6695642 1.2933205 3.3143086 -2.3605747 -0.45393524 -2.14804 0.47962484 -0.7810058 -0.47389236 1.2601662 -1.1711695 -2.5150912 1.4292394 -2.182667 2.2903688 0.7718538 -1.4782221 -1.8791698 -1.6251712 -0.6071747 -0.33245045 0.87664723 0.64184153 0.21587504 1.1277683
playing 0.07793553 -1.7501832 1.59158 -1.240047 0.35596454 -0.30130893 -2.1628823 0.3504073 -2.7588124 0.8913125 -1.0036696 -1.20937 1.1081042 0.4317824 0.037454367 1.9309145 -1.4990115 -0.45365605 1.2768677 2.399402 -1.3865913 2.9973433 -2.1370108 3.0347326 -0.7335961 -3.7916174 0.9094313 -0.50159746 1.5899485 -1.2069775 1.1122992 -0.76252604 0.4868442 -0.57271963 1.288376 -1.7593389 -0.9489381 0.34221753 0.728573 1.0495148 -0.20289613 -0.45925075 -1.1395726 1.1179552 -0.07786824 1.0912837 0.27500176 2.6270418 2.0460925 -0.14665191 -0.31637844 3.3998091 -0.3464255 -0.8524975 -0.9068375 -0.5678381 0.2328688 1.7405263 0.17592062 1.0052626 0.3589596 0.7358116 -0.46202347 -0.17796654 -1.3413548 -1.9177849 -2.8309555 1.4101942 2.217585 1.0841942 -0.2402528 -0.41804302 0.014915612 -0.3844618 -2.283509 2.960756 1.9453514 -0.6105506 1.6527531 -0.3793739 -2.733564 1.9426354 0.27701294 -1.4325565 0.16563976 1.1911976 0.22563678 -2.0247717 -1.6653337 0.8458209 0.02113067 -3.9367788 -4.377756 2.276838 0.44104338 -2.4899693 -0.6593521 1.2766355 0.69967556 -1.3590623
computer -0.84443986 -0.2425024 0.36411682 -0.2905366 -1.9871315 0.18855576 2.055248 0.6741912 -0.37777066 0.48228246 -0.9251153 2.5285985 0.19897515 0.9041352 0.4702979 -1.1276491 -0.45172372 0.43756005 -0.6949289 1.7589002 2.1521814 1.2485251 -0.41676533 -0.5578962 -1.9380503 2.0058115 -2.7615743 -0.95941114 -1.121336 0.88837266 -0.98225474 1.545482 0.18287854 2.294831 0.07377184 -0.5307003 0.9398484 0.070278026 -1.5067028 3.4795742 -0.118787386 -1.626193 -2.7850478 0.88355064 -2.2838492 0.0095526595 -0.32760057 2.735006 -0.82943153 0.09547944 0.6213893 -0.022866884 -1.4221356 -2.257875 1.0862269 2.8647506 0.015688365 0.61635 0.43350205 -1.3261417 1.4417198 0.54398966 1.5987062 -0.662228 -0.07514012 0.58380693 0.120555736 -0.8624572 -0.47256467 -0.03062496 1.3834836 0.79978895 -1.08201 -0.19809984 -0.67093855 1.156154 0.8902446 2.027199 -1.4463265 -0.24667399 -1.0046743 -0.6958329 0.452256 -0.92842263 3.0221577 -0.46484047 -1.8367859 2.007556 -0.8034223 1.613588 -0.4831703 -1.2353572 -0.554134 -1.0104624 -1.3333868 1.1861967 -1.1261203 -0.2633534 -1.59076 0.515471
laying -0.5633362 0.016986761 -1.4447391 0.9708297 -0.8557486 -0.3310606 -1.381584 1.9817208 -0.58785015 -0.5336707 1.6885816 0.17613128 0.7591846 -1.8995893 -0.19723994 0.89785784 2.2414258 1.6127441 0.5332178 2.1965046 -0.36865333 1.1538283 1.7639798 -0.53245664 -1.3221896 -0.68370193 2.5307715 0.16829053 -0.9290143 0.34728485 0.79576504 -0.33294556 0.2643384 2.4624743 -0.10644037 0.5365401 -1.8173444 1.2941031 -0.35577092 2.5980425 0.77849716 1.3725846 -0.3562823 3.23512 -2.2951257 2.446762 0.3911613 0.52473456 0.26578185 1.5928761 -0.55603427 2.988811 -0.045747653 -1.6455615 -0.6030631 0.7148597 2.776427 -2.082718 -1.1368424 -0.31358132 1.286238 -1.1257576 -1.7128365 0.07726892 -1.7747861 -0.53867435 1.2994137 -0.5862519 0.72363514 1.6064224 1.1621094 0.5777613 -1.6834767 -1.3605751 -2.9880924 -0.75653845 -0.11750977 0.32156965 0.8227612 -2.2817552 -0.9184818 2.3189402 0.025283333 0.044692393 0.6707276 0.32998067 -0.28852877 1.9049616 2.9153543 0.9375024 1.3309627 -2.883242 0.64288336 -1.0910054 -0.53419673 -2.2929404 -0.06853577 2.1900551 -1.0334071 -0.9041587
green -0.17997506 0.05300902 0.572196 1.9486705 3.1264894 -0.78204805 2.973363 0.53895926 1.0545254 0.2939168 0.8196622 -0.48151928 0.040634308 -0.17811279 1.12344 1.5543143 -0.35870335 1.8542156 1.3129753 0.638914 -1.6491846 -1.1900339 1.2133403 -0.23030363 -1.911909 -0.1303485 0.77036184 -2.2177227 -0.3942212 -0.5838446 -1.4421424 1.1227945 -0.5365774 -1.0479965 -0.66949403 -0.6368421 0.5220461 0.9420556 -3.400292 0.022044713 0.31281683 -1.7484398 0.3457014 -0.46969977 -3.327465 -1.4623665 1.3204542 -0.16489466 -1.2922734 0.9070259 0.36124295 0.29805616 -3.3050852 0.03738949 0.47007763 0.11717836 0.83790755 -2.6391814 3.102489 -3.2222047 -1.1966679 -0.3041985 1.5590115 2.2790844 -1.1441244 1.2346014 -1.2164041 1.2538913 -1.4511659 1.07644 -2.1551485 -2.485387 -0.9383296 1.0813959 1.0686967 0.4545159 1.0246258 0.22107135 0.6808232 -0.8366583 -1.3578659 -1.7463857 2.3146405 0.6049524 0.22291198 0.71783185 1.7957346 1.7479017 -0.20235266 -1.0319719 1.322819 -0.36439618 -1.3007406 -0.106916316 0.71634173 -2.0109537 2.3165865 -1.1236165 -0.6819115 -2.8116891
laptop 1.7022121 0.017594758 -0.34403914 -1.0586166 -1.2719196 -1.8728641 1.6266713 -0.712943 -0.830364 1.8356069 -0.55232406 1.6781005 2.3243797 1.4134989 -1.0809873 2.0880265 1.5488411 -0.2352529 -1.2674913 1.0329397 1.0555975 0.8109104 -0.90313905 -1.0185736 0.5725034 1.0120659 1.1441327 0.16309904 -0.52718014 1.6588206 -0.8559733 -0.73207873 1.5408514 1.4548476 0.4065312 0.43570182 2.2088509 0.29129437 -1.3322588 2.0328913 0.8565076 -0.2528753 -2.0652955 0.6963005 -1.5025678 0.89146686 -0.5136053 0.043629486 0.03266768 -1.0566941 -0.3420785 -0.6385745 0.873228 -0.44065195 -1.4354244 0.7839484 -0.5623497 -0.3411099 -1.3965219 -0.6609845 0.32162172 2.486912 0.26502785 1.1648719 -0.7449517 -1.7638471 -0.61785734 1.3141205 1.3863162 0.19719818 1.6472191 -1.052124 -0.71786547 2.0992844 -0.9523705 -0.10859472 0.90974385 1.5044994 -0.5124205 -0.4896298 -1.9294521 2.108558 1.7224581 1.2973509 1.1037315 -1.0307261 -2.5025675 0.13745332 -1.4784235 1.5730816 0.043259505 -0.32196862 -1.7166735 -0.80379075 -0.864865 0.773533 -0.9684189 -0.30838734 -1.8907723 1.0244544
walking -1.0914179 -2.95085 -2.7069495 0.6424449 1.9511718 0.09271259 0.35537484 0.78374153 1.3822902 -1.5963948 3.0751915 -3.3698103 -0.40925002 1.0492959 2.0837085 2.8134122 1.8215097 2.4752982 1.3322663 1.6682996 -2.0295625 1.860938 -1.7441874 -0.48221403 1.6152567 -1.3486145 2.5795076 -0.13052896 -1.5174733 -0.68175983 2.034943 0.49483976 3.0762196 -3.283525 1.1612929 0.9800915 -0.61977124 -0.42780623 2.2204864 -0.84491765 1.8447063 0.060127355 2.1763682 -1.6671693 -0.76474345 -0.103439204 -2.649473 0.014556538 0.6670173 1.0606871 -0.9697657 0.03712361 -0.5507017 -1.9667983 -3.2336493 -1.7025368 1.1100719 2.0151672 -1.2400163 -0.37492558 -0.2970498 -0.69723207 -2.3992448 0.83534193 -1.629726 0.7502791 -1.9362481 -1.5735004 -2.9910464 -0.019537542 -0.3514012 -1.1713835 -1.817186 -1.604679 -3.432223 -0.47160575 2.7612283 0.90604186 -0.21413182 1.4142036 -1.7945763 3.580379 1.2663459 -0.24475113 -4.3554177 -1.1307855 0.96977425 2.5432563 -0.8126278 2.007608 0.2642961 -1.4124879 -0.7737021 -0.37353522 0.6230646 -2.0685112 0.4198286 0.093238175 0.2422663 0.39176014
clock -0.012373109 -0.18055306 -2.9639738 -1.1859057 -0.28246412 0.14339997 0.7003085 0.2745682 0.65419847 0.9326735 0.8687311 2.0418806 3.0733047 3.8885176 2.4033737 -1.9250629 -0.5498966 -1.8177202 -0.7393072 0.4268195 1.9421434 0.5202158 1.2583516 -2.0578468 -1.0716418 0.8094246 2.0145845 0.029946616 -0.87828773 0.020206347 -1.5332407 0.50137585 0.0037219955 -0.0499679 1.317642 0.6071056 0.86929965 -0.8758504 -1.025665 1.2905455 1.2484691 -2.691436 -1.5212202 0.40494636 -0.31374702 2.8245928 1.0465041 -0.26442364 -0.1408651 -0.60369104 -1.320164 1.928872 1.5424525 -1.9757342 -0.14542775 -0.51584744 1.7844987 1.4350629 0.007856147 -0.24155943 -2.3397813 0.26978752 1.2445722 -0.3144275 0.82988954 0.14767195 -0.6013349 -0.9952036 1.0748234 0.32333893 1.0241091 1.2724028 -0.8452975 -0.3162204 -0.40318254 0.3982148 -1.2441937 -0.81332165 0.66614854 -3.4212532 -2.3638144 1.7070675 -1.2356176 -2.4394238 -0.42877382 -1.7716761 0.17484783 -0.45457914 -0.52910876 3.8553345 1.2076635 0.5787474 -2.1885343 -0.15135105 0.69543666 -0.5977909 -0.8434348 0.94476175 -2.623956 -3.136642
water 0.885863 -4.453405 -3.426641 -1.1696618 1.5075879 -1.0366362 -0.07142373 -1.0663558 -1.1346955 0.7987619 0.48310572 -0.84071994 -1.2469347 0.9945392 1.0576339 -0.6897166 0.40287068 -0.4062508 -0.9696953 -0.22955534 0.35978037 0.3493444 -0.13541272 -3.0111938 -1.3939219 -1.0241399 0.042453744 -2.195676 1.7190813 0.69983155 -1.8061869 0.44539365 1.6488968 1.2771497 1.4855804 0.055225316 0.34107995 -1.697083 -0.5051389 1.4040799 3.6339493 0.2869797 -0.48406133 -0.038233645 0.28923094 0.4652341 1.7206202 0.5973784 0.88811916 -1.7771541 -0.36355427 -0.5099868 0.8085173 -1.1580869 -0.28229156 3.0078697 1.3454205 -1.3709555 -1.3368044 -0.38678908 2.4140608 1.340331 0.5110462 -0.004937437 -0.014075791 -0.67107666 0.59378445 -0.20329869 2.4207253 0.18907137 -0.79112345 -0.2170102 -1.3999871 -1.1308602 0.7660071 -0.7498934 1.8374522 1.1858264 1.0632195 -1.7228396 -0.5392418 2.4465353 -0.5673295 -0.27689382 -0.2889377 1.2491158 0.8268944 1.0958513 0.6183246 -0.486659 1.4016948 1.0404167 0.041718647 3.0187905 -1.0348073 0.64503294 4.321033 -1.6251901 0.68677384 -0.7953646
topped 1.8616016 1.2201744 0.52168995 -0.13983311 1.0923524 -0.054767005 0.4570934 -1.6966797 -1.6031735 0.2189029 1.2739513 1.8216008 0.55990505 1.0836508 1.2790142 -0.4767345 -1.8866475 -0.6486177 -1.238512 -0.52880573 0.9504361 -0.15602477 -1.0880003 -0.9032398 -1.6432554 0.33989808 1.7204337 1.1230986 0.5915817 -0.40280214 -1.3467501 -1.3678932 0.31473437 -1.2820557 -0.8418394 -1.8336402 2.396574 1.2548801 1.3097538 -1.643383 0.5090942 0.008243129 1.399825 1.1311171 0.36029908 1.0303284 0.1551672 0.9214337 -2.3216145 -0.1816802 1.8930538 0.88110256 -0.6660945 -1.7301439 -1.8337317 -3.000513 -2.0680795 3.7804384 -0.6678344 2.2468495 -1.6696379 -0.39721575 -3.0350773 -0.853128 -3.0715473 0.7691217 1.3387159 2.250859 3.4253776 1.8282578 -2.3400238 0.42544913 -1.9184642 2.8272467 -3.233041 0.02707743 -0.420594 -0.020907754 0.24656709 -3.3268259 2.5290554 -2.8526428 3.060056 -0.3433678 0.8282532 0.66970325 -0.7368628 -1.0311283 -1.9536004 2.0424967 0.5716513 0.7824898 0.17511386 0.7570602 0.0979655 0.86095494 1.6264361 0.8886129 0.44920537 4.315949
lush 2.2076914 1.1254882 -0.67956054 1.8795443 1.0734464 -0.16976133 2.5178764 -2.2729712 -1.2054925 1.0776702 -3.7785354 0.860716 1.6043698 1.5644203 1.0120196 0.9146599 -1.9577743 -0.33428824 -0.13488418 -0.12344101 -0.27280918 -1.1101886 0.9611006 0.392611 -1.1878785 0.20593165 -0.02108676 1.1516901 -1.7141639 0.38793606 1.2898746 2.5124822 -0.1204285 0.39860886 3.0030878 -0.32212165 -0.45757443 -3.2458405 0.62784004 -0.53139144 -1.5359467 0.75032127 0.9973458 2.9720747 -3.987667 -2.5058231 -1.0263146 -0.96012545 -0.8438992 -0.1772861 -1.2396584 -0.84025925 0.7971005 0.19999003 -0.29443225 2.8634348 2.342748 -0.49602434 -0.2701314 -0.896954 0.80645025 0.7071716 -0.45232832 -1.4291368 1.6645048 -0.5429392 3.021726 -0.9117956 -2.4011378 -0.6028937 2.275134 -3.3517144 -0.53601974 0.6979591 -0.63870806 -0.8484677 -2.0561488 0.3396787 -2.0296886 -0.3138127 -1.1035088 2.5601332 2.6901217 1.1376916 0.71992284 0.6957621 1.0320963 -1.4641769 -0.41159052 -0.56466264 -1.8134362 -0.11037429 -2.0477657 1.3389474 -0.97455484 0.3321319 0.15354599 0.91422296 -0.9899312 -2.427302
pizza 1.7122742 2.1703076 -0.66728854 -0.7565487 -0.25618267 -1.0491277 1.8951858 -0.50326043 -0.14715445 -0.65193707 -0.8030093 2.8806243 0.35035875 3.7253938 0.8529426 0.35121208 1.0295352 -2.1444736 -0.9128487 1.0874603 1.1862686 1.3834224 0.3729166 -1.4644923 -3.7818022 -0.425062 1.5201331 1.4582312 -0.5831279 0.77638364 -1.247225 1.0829378 -0.47316253 1.8020303 -1.0194676 -0.58579606 2.6063368 -0.5697247 -1.4181535 2.0226948 -0.28601462 -0.4094524 -2.3349907 1.2647852 -1.7079022 1.7365135 -0.46615168 1.5103 0.80094093 0.1010814 0.6158111 0.30340475 0.15723833 -2.0599618 1.3039932 1.3132712 0.64730227 0.70205367 -0.7069489 0.09810174 1.6138308 0.3250275 1.5672272 0.52611667 0.25166094 -0.07483064 0.44386765 2.6801817 0.58946973 -0.27304795 0.5187694 1.5353585 -0.8409636 1.0806489 -0.4279415 1.2589334 -1.5257978 4.6121593 -2.2386627 -1.4969082 -0.8587257 -0.7210803 1.9363275 1.5782367 0.68131864 -1.7709268 -2.9572556 -0.84626245 -1.7490284 -0.18155313 1.2982594 0.2978101 -0.5132672 -1.4022554 -2.14359 0.07173781 -0.79761595 -0.26980367 -0.36828873 0.6565752
surfboard 0.9825365 1.4708521 -1.3974711 -1.0802523 0.93882847 0.9627612 2.2951312 1.3631742 0.038225494 -0.9573235 -0.21814506 1.881722 1.6866832 1.4804205 -0.60851645 0.22742583 -1.0034649 -0.51249737 -0.11469721 0.53606284 -0.021495432 -0.28695482 1.3349551 0.7251481 -1.4306688 0.7601178 0.94549876 -0.6918281 -0.39416867 0.436771 -1.1619875 -0.84432423 0.6277943 2.314348 1.2518003 0.2558839 -0.91077375 -0.34392482 -2.3674846 1.9890231 0.25035444 -1.169387 -0.16433376 0.98692703 -2.2662282 1.8146602 -0.65150464 1.1070987 1.3956813 0.32898965 0.37152356 0.8651694 0.1389998 -0.98929524 -0.65883446 1.1869339 1.4450753 -0.38959265 -0.021776399 -0.14735982 -0.18367928 -2.187095 2.9165635 0.28299186 1.4466076 -0.3856182 0.23034757 0.45911306 -0.40004957 0.2554478 -0.8758136 0.789593 -1.0495541 0.51892567 -0.73953193 0.80133927 -2.2735906 1.2280169 -0.92361337 1.2892306 -1.745218 3.5659308 -1.0531168 1.666405 1.9097828 0.03506702 -0.7912967 2.512712 1.5631026 -0.026481641 2.3523953 0.71264356 0.16866352 -0.515869 0.51520026 -1.0619789 -0.4615649 -0.5409084 -0.72906464 0.5070837
bus -1.6510837 -2.3924756 -2.963642 -2.1937118 0.61672014 -0.59921163 -0.5128066 -1.2733939 3.2987711 -0.06834564 0.82167923 1.7989241 1.7198707 0.43948513 -0.725836 -3.6863487 2.0847285 0.7412545 -0.55130434 1.1531482 0.53819096 0.62049186 -0.78372407 -0.4591317 0.71047604 -0.11605504 0.6005041 1.8746982 -0.56443137 1.4258089 -0.2846474 1.4863517 2.036431 0.26919255 2.194885 -0.78278756 -1.0637503 -2.8916028 1.3217226 -1.8200735 0.09540795 0.1417332 -1.7788621 -2.9123483 -0.1480316 1.9887573 -0.5296814 1.7658554 -0.10716609 0.5039589 1.0015194 0.11975702 -0.0012358514 -1.8774251 -2.0197632 -1.7157421 0.54036766 1.2970167 4.726352 0.1503361 -0.41625795 -1.432843 -0.09148562 0.7773956 -1.3109758 -0.79058015 0.55037177 -0.025569865 -0.19493231 -1.4193434 -0.9279809 1.8710558 -1.4052815 0.6760589 -2.3704493 -0.4364103 1.5473291 2.0852768 -1.5301331 0.79622734 0.7379864 1.8379841 -0.8383602 -1.864864 0.1636097 -0.3755186 -1.9791322 0.9125138 -2.8089857 0.76570135 1.1117184 -0.20499365 -1.2493829 1.734604 -0.28637478 -0.67503375 -0.26652208 -1.7470793 -1.444826 -0.63494533
around 2.1111484 1.4270083 1.7031522 1.3550526 0.4549214 -0.19316445 1.1040596 -0.90473586 0.13525058 -0.61525095 0.22027677 -1.8595867 -1.289465 1.2527169 0.2752215 1.8814564 -1.0333387 -1.6516052 0.067350924 -2.498768 1.7956438 -0.8893041 -2.4243038 1.1989667 0.05348619 -0.4725571 -2.1257212 1.0819148 2.3885934 0.854252 -0.11839632 0.9524679 -0.049070835 -3.2525117 0.11275093 -1.9985038 1.856914 -0.93253136 1.7332169 -1.1848223 -3.5085177 -0.28306746 -0.22855972 -1.7709013 -0.32171115 -0.9668236 -1.3084185 -1.2840587 -0.20489688 -0.79662216 0.097876556 -0.37578452 -0.82028276 1.2674589 2.1639404 -1.0667263 -2.0370193 3.1304007 1.2526629 1.5993048 2.2118914 -0.15776604 -0.9446716 -1.5888926 0.42021966 -0.60237527 -0.9999034 0.07159586 -1.2559804 2.4348218 -1.1250556 -1.274052 1.6178803 -1.7563399 1.6982132 0.19684279 -2.8295684 1.8383068 0.13781475 -0.62453777 2.3735068 1.2256465 0.5045125 0.37679538 -0.47592226 -0.18244025 1.2221962 -1.5915474 -4.6224527 1.5799736 -1.0264136 1.5283023 -1.0254377 2.3407285 -0.34257224 0.2356893 1.6937035 -1.2015074 -1.4932456 1.1954424
herd 1.650457 1.292015 -1.9628222 0.9660877 -0.6270342 -0.3643972 4.040171 0.34087077 1.0031393 0.33171684 -0.6465533 2.7700412 0.37451816 -0.4835266 -1.4963065 -1.4170774 0.034503654 2.1470163 1.2162688 -0.3784918 0.4067948 -0.42259774 0.93587685 -0.6701047 -1.7380838 -1.3214047 1.5809195 -3.1526656 -0.536178 0.65314156 1.9562604 1.9941745 0.10619815 -0.6778959 0.41302073 0.6364001 2.142368 0.31848603 -1.3819089 -0.033541106 -1.6879644 -0.7079616 1.2680407 0.84839725 -4.8040414 -0.8241365 -1.4668396 -0.7144286 1.7389376 0.8667571 0.45587257 2.1134276 -2.2153137 0.72581404 -2.3098264 0.7654768 0.20561609 0.43790582 1.5839691 -1.855691 1.7391635 -0.815 1.4664197 -0.28127655 1.3603357 0.66105694 0.8581864 -0.4229734 -1.2113185 1.563267 -0.24196927 -1.4141108 -2.6043975 0.43932387 -0.49741688 0.9163742 -0.51000774 0.7368533 -0.7062916 2.4983792 -1.3537844 0.87729555 1.1519028 -0.78328156 3.1501415 -0.0940152 -0.6409384 0.2620263 0.30967504 1.5416129 0.45402622 0.7154322 -0.23820122 1.2793206 -0.34385392 -0.60023624 -2.1512728 0.035582248 0.020822147 -3.4990437
game 1.4031097 -1.3063751 -2.9057934 -1.2399135 0.7608645 2.2380452 2.0720513 0.017854707 -1.3342865 0.57886153 0.3884955 0.50906944 -1.0411515 -0.75332904 0.74776965 0.9688998 1.0691165 0.056429286 1.3824342 1.4405696 0.40273285 2.9977815 -2.822668 3.2381735 -0.56398135 -0.23500632 -1.6797149 -0.84935766 0.5736352 2.7315817 -0.16421598 -0.33129007 2.270423 -0.66007054 -0.8880496 0.09416151 0.3148541 -0.95088613 0.051614735 0.6784485 -1.5206112 -0.45349768 -0.05345691 -0.6701613 -0.5652599 -0.0754547 0.4132151 1.9812716 2.2949035 -1.5811871 1.1862239 1.5045094 -1.8912768 -1.9970018 -0.6150685 0.27254903 0.5172645 0.33526087 -0.88147926 -0.48801544 0.39013252 -0.2506575 -0.7289385 1.1528151 -0.12483346 -1.3642716 0.12854081 -0.44926006 2.0187852 0.8449792 -0.66527355 0.76229954 0.63133556 1.7097553 -1.6339324 -1.0612127 2.487847 -0.7481523 -0.62323314 -0.8502106 0.8427492 0.45344454 -1.639825 1.6279081 1.1615388 0.52681994 2.7675369 -2.0123 -1.0245667 1.7770579 -0.1045309 0.7093103 -0.30528995 0.21993971 -0.9901877 0.5470174 2.3439293 0.369999 -1.7485459 0.6980757
living 0.379072 0.7271121 0.431767 -0.6467992 0.5938334 1.8244953 -0.022852603 0.9022174 2.4383466 -0.10392056 -1.5798193 2.9007695 -0.86876374 -0.091193065 0.24006435 3.025133 1.4139869 -2.1990862 -1.0555164 -0.6181558 0.7012493 2.61847 -2.4286747 1.3976982 0.07749557 -0.1909416 1.6435794 1.952128 0.5941609 0.5331544 -0.44077605 -1.0788203 0.85783714 0.3735687 0.52401686 -2.0082526 0.72599924 1.6704477 -1.5034568 0.5857596 -0.615147 -1.6537821 -1.0696495 0.027717264 -0.13056426 1.7675799 2.1468499 1.2538899 1.4080313 -1.1925182 -0.758139 0.77590394 0.6815738 -2.0309885 -0.6655349 1.7553707 -1.6270432 1.7604035 0.3188896 0.6529466 -1.7535369 -1.4089662 -0.32961315 0.48302883 -0.07312489 -2.944064 -0.42576197 0.87430656 1.0134225 1.5583291 1.3255776 -0.21936646 -0.3765201 0.05349904 -0.17895587 -0.15974744 1.4908153 -0.72381675 2.709518 -0.36132252 0.333186 3.2174084 0.07922533 0.3976654 0.117399886 -0.038412075 0.13448161 3.510562 0.78343904 -0.25829658 -0.7416292 2.1690412 -0.7186032 1.8833641 -1.3212702 0.18810749 0.9589016 -1.2109851 -2.538396 -0.057168085
bat 2.0421288 3.9897337 -1.5903631 -1.5597728 0.41163352 -1.7103872 0.29168296 1.2675796 -1.115416 0.04133928 -0.624439 0.92498153 2.1503146 0.27752194 0.19776249 2.5409064 1.3799537 -0.42185295 -0.40886825 1.7767291 0.07581347 2.113682 3.826115 2.5940654 -2.4561732 2.1131537 1.4957902 0.09893345 -3.1344259 1.7944169 -2.9060454 -0.21240398 -1.7179077 0.1751396 0.6590181 0.30490604 -0.47968066 2.3558311 -1.072545 -0.89385587 1.2153208 -0.89950323 -0.80130136 -0.09301874 -2.0448704 0.62733734 0.28773594 1.7904092 0.63740623 2.3985248 -2.0527852 1.6644462 -1.7442341 -1.0737929 -2.087685 2.1513693 1.7345182 -1.9559971 -1.5122101 0.34554335 0.023978617 -1.5620292 1.8613758 -0.07189454 1.1816161 0.74413997 -0.06275607 1.8763041 -0.66756153 0.72823817 -0.4178022 -1.5466261 -0.17859067 0.5642216 -1.4094204 -1.8907244 -0.8209169 1.6829628 -0.828463 0.9334961 1.3645121 -1.2187374 -0.059314672 0.61769885 1.3697168 -2.7717776 -1.2349589 1.795759 1.4405177 0.012514004 -2.5775664 1.4998937 -0.98615205 -3.0648258 1.2770646 1.2868208 -1.1484127 1.507385 0.37041155 -0.45295003
giraffe 1.2063547 0.006604411 -1.547956 0.036356483 0.63803715 -0.96322006 -0.5483319 -0.89366305 0.30314586 -1.3149357 1.7825589 1.9577044 1.2071195 0.94373864 0.17463231 0.3303576 -0.5193265 0.06779843 -1.3532933 0.33780423 0.034019552 0.69373935 1.4739835 -1.1617837 -1.4028345 -0.896758 1.6072443 -0.0031131248 -0.46225706 0.74020666 -2.281148 1.557899 0.14839077 -1.6044316 3.1393223 -2.6060488 -1.788811 -0.37173748 -0.26386052 0.43025935 0.40772408 -1.4569699 0.67555904 -0.3721232 -0.35798874 -0.64247763 0.5350973 -0.13373725 -0.9005319 1.4625489 0.04231895 -0.97256136 1.2855285 2.8560224 2.335234 1.8195112 0.80102044 -0.9669937 0.03431862 1.8721248 -0.4181502 -0.79087055 0.41369122 -0.00090011116 -2.3768992 0.34334403 0.54643303 0.3749567 0.8570794 2.7007627 -0.33492628 1.381258 -2.0127814 1.4248722 -0.65933174 1.7520744 -0.16338813 -0.41171053 -1.8587596 -1.7659782 -0.014068076 2.6297948 -0.6139263 0.94323283 2.242248 -1.1068791 -0.8319342 1.9105979 -1.3736519 -0.57870173 -1.4104995 1.6038991 0.5827342 0.82350963 0.8929162 -0.849711 0.71176493 1.2927548 -1.2337158 -2.53429
it 0.79233855 -0.52623165 -2.1131663 1.1933416 1.2290368 1.1262223 -0.1450216 -1.1832988 -1.037522 0.4528142 -2.6861672 1.4058474 0.5376604 -0.2659791 1.3649354 -0.83142143 -0.20574014 1.371036 -1.3892715 1.2119299 1.9137244 0.060740888 1.4983448 0.38432348 -0.00067585486 2.6231606 -1.5701299 1.5979546 -1.0572283 -0.906651 0.5256518 -1.6222209 0.48676097 -0.2912926 -2.0146754 2.2744389 0.3647461 1.7090153 0.23126695 0.4035646 0.23042935 0.86697423 -0.3256362 3.3337877 0.32019722 1.9335035 1.0489562 -0.4227806 0.10536207 0.04733284 -0.3184674 1.7675717 1.4052263 0.2581276 -0.2642926 -0.86246955 2.9534347 0.13143875 -1.5351114 0.7841674 1.1103 -1.6192659 -0.06562821 -1.5255308 -0.5444542 -0.27417645 0.51308537 -0.7009972 2.0261464 0.47969645 0.27521536 -1.0069622 0.082281575 -0.6058444 -1.1985618 -0.09677186 0.26030004 -1.4982599 2.2369435 -1.7948484 -0.0098374905 -2.2814848 0.222257 -0.5526081 -0.1104719 1.4188212 1.576593 -0.09735085 1.9326617 1.2812084 1.5298676 0.9256924 -1.6271162 1.3519435 0.99662894 -2.2011857 -0.5513131 0.44901347 0.6483713 1.2169688
two 2.8302405 1.0944335 0.2020754 -1.1328678 -1.1600436 -0.4115476 1.2240269 -0.9388437 1.8295411 2.253744 -1.0102819 0.34524795 -2.9180875 -2.4582095 0.4567822 -1.6769198 -2.4368863 1.3276441 -0.48911154 -2.9340205 0.9869867 -0.47443873 2.9598336 0.068992116 0.61564606 -0.75822914 1.2972972 1.7979773 0.39529172 -0.03870906 0.9669418 -0.7030533 -0.6885544 -0.0803317 -0.45147762 0.35567203 -0.260304 0.061741427 0.30869904 0.7661819 -0.19819766 -1.6712942 -1.3514181 -2.1411757 -0.6438319 0.06443312 1.4730883 0.7668477 -0.44744372 -1.3180695 1.1221586 2.6877573 -0.14349703 -0.5590542 0.1087269 2.1381242 -0.9124619 -1.1404257 -0.14173624 -1.8893833 0.17250732 -2.136808 -1.3736396 -0.2616239 -0.3808244 -2.2880123 -1.5574245 -0.48317164 1.763506 -0.017018545 0.27447313 -2.1257775 -0.8060439 2.1247115 -0.4243631 1.3585571 1.5612222 -0.098104425 2.056067 1.257713 0.0021697583 -1.138606 -1.8951719 -3.4191089 0.8882249 1.6144489 -0.34965646 -1.1796782 -1.2850411 1.2239037 -2.7138584 0.16494314 -0.49926752 0.07328151 -1.3968264 3.8767304 -0.46764454 0.10949693 -0.18433325 0.9531102
city -1.3435863 -1.2456433 -2.1743095 -0.14432271 0.48288405 1.4682201 0.2711218 -0.30457175 -1.9522066 -1.1273247 0.066240504 -1.0354089 0.34799162 0.44359347 -0.24797843 0.5361463 1.9263217 1.3034363 -1.7808797 1.3799886 1.7017703 -1.2388818 -0.51327413 -0.7344955 0.6610498 -0.9167309 -0.75647885 -0.010796014 -0.6795027 3.417853 -0.43075112 -0.031707935 0.38165978 0.13622774 0.9584046 0.6254659 -1.6445502 0.21618432 -1.0441302 -0.73339605 2.5219505 -1.0413709 -0.6301803 -0.17404494 -0.37578988 1.174523 -0.8945805 0.035767145 1.4822555 -0.28126135 0.2336007 1.7646216 2.1518996 1.0588491 -0.12588388 -1.0180007 2.6644628 0.838827 0.66062135 -1.7639955 -1.1467781 0.31985915 1.5362221 -0.561534 -0.15521814 -0.89796376 0.123255156 -1.0277623 -0.59111094 -0.5009465 -0.765081 -1.3682593 -0.7822298 0.15338449 1.6717451 -1.5371351 0.2513491 -0.3205959 0.26988867 -1.0866449 1.4103848 1.2503932 0.7069433 -0.57269883 -0.93642277 -1.54087 1.2195373 0.47975793 1.320346 -1.3164409 0.6762543 2.1916304 -0.38203183 -0.0043944046 -0.19538172 -0.79730415 -1.1352948 1.1117834 0.7881624 2.4306018
boy 0.31912303 1.257555 -1.4799892 -1.1595027 -1.7209027 -1.2173004 -0.684059 0.28059676 1.0322329 -0.78784585 0.1178081 0.69604355 -1.2009854 -0.33117738 0.9173586 -0.47888494 0.812655 -2.046998 0.2713938 1.0669848 0.5662679 -0.388718 0.24840674 0.74300313 0.40915903 1.0351808 0.2933112 -0.96227556 0.27581683 0.40084913 -0.10826551 -0.16929105 -1.4668355 -2.3770006 -1.5754503 1.3686213 -1.735207 -0.4065645 -2.0795753 -1.3592796 -1.3033612 0.2844312 -2.3941085 -0.12918061 1.3257374 -0.71379054 1.8394413 -1.4350985 -0.8487718 -0.09671581 -1.2332827 -0.16184872 -0.43222767 -0.3329579 1.6013644 3.3442729 0.7969387 -0.93744075 0.2547698 1.7690623 0.15066253 -0.7227651 -0.4943872 1.0278852 -1.5986344 -0.052797213 0.49274886 0.6353839 1.1383398 -0.9545303 -1.4254714 0.6119544 -0.26970202 2.67152 -1.716871 -0.20193356 1.0360544 0.38539854 1.0968148 3.0980682 -0.42628163 -1.0420369 2.1607752 -3.2273848 -1.0987377 0.5074277 0.8512447 -1.8973098 1.5100036 -1.3700716 0.31610417 1.1390282 0.79406005 -0.93131447 -0.6716772 1.5967721 -2.9457264 0.5243436 -1.3006586 0.7736111
frisbee 1.9218051 0.12033477 -0.07621529 -0.81810224 2.8559616 -0.5072358 0.5266244 1.0781244 0.38687834 1.8639455 1.6224736 1.1114354 -2.0264452 0.9345111 2.439748 0.3662384 -2.1384323 -1.7831302 0.096595585 -0.46176177 -1.6215035 1.5952505 -0.5080941 -1.6359569 -0.6128631 1.4195405 2.0793962 1.6946791 -1.1731318 2.1899383 0.41936564 -1.9948435 2.2957084 1.3597435 2.4442635 -1.6614131 -1.387719 -2.085669 -0.14463791 1.4046724 -1.5859594 -1.7325331 0.516754 -1.7433611 1.6516339 0.1598153 -0.3845114 0.78412443 0.30796844 0.42223284 -0.7624147 1.429809 -9.95943e-05 -1.9611135 -2.159009 0.42575848 2.6836119 -0.6903033 -0.07973366 1.4837621 1.1142912 -2.09131 1.0171821 1.9694294 -0.09909563 -0.66987044 -0.7473359 -0.41966543 0.38203263 -0.9111918 -1.8824391 2.183965 -0.46986815 1.9688258 -2.521148 0.17829056 -0.19668494 0.34472182 -2.32561 0.9500532 -2.171567 3.54134 -1.7825414 0.07739395 -0.34808484 -0.08494128 0.091490604 1.3640207 -0.04275192 0.22096737 0.9448191 -1.0321416 -1.3094122 -0.20450707 1.8678633 0.0060538705 2.1023245 0.70418173 -1.4260252 2.133792
are -0.008068898 0.07333612 -2.4588351 0.2323765 0.33005485 -1.1274604 0.883121 -0.48605543 2.5552535 -0.49387196 0.7292849 -0.8796954 1.4626952 0.10390365 -1.5610167 2.5910017 -1.6169157 -1.2222251 -2.5464997 -0.59290683 -0.35803866 -0.5836814 -2.5229678 2.3192725 0.08336946 -0.7466089 1.8160169 0.56117594 -0.60469365 -0.52086955 -0.60929 -0.97535604 1.5119125 0.0022474194 0.7051613 0.66311324 0.09481584 -0.662393 1.3621486 -0.87285465 -0.67470556 1.4191699 -1.9968417 -2.193047 1.9186896 0.39713207 0.8451279 -1.1588441 0.8547036 2.17817 0.71759516 1.0079346 2.0012178 -2.148944 0.11012823 0.047193155 0.4703194 -2.6822498 -1.2173721 -1.0157652 1.3107646 0.4287094 1.9904233 0.15589024 1.3363584 -0.9502398 -0.8799761 0.5011865 2.481664 2.7961857 -1.0529196 0.6730639 0.48403877 0.07138188 0.54476696 0.44504315 -0.8249766 0.94970024 -0.12198832 0.5290581 1.8757503 -0.14687927 -1.9223337 0.61812717 1.0335091 2.4249847 1.1524885 0.046928007 0.46423575 -1.331937 1.0001181 -1.2232969 1.801268 1.0123966 1.1435399 0.9888503 3.5015142 0.16729489 -2.0113864 -1.7494303
